svm_type c_svc
kernel_type rbf
gamma 0.125
nr_class 2
total_sv 539
rho -3.02821
label 1 2
nr_sv 286 253
SV
1 0:0 1:0 2:1 3:1 4:1 5:1 6:0 7:1 8:0 
0.09976447916610669 0:-1 1:-1 2:1 3:0 4:1 5:0 6:1 7:1 8:0 
0.9138625906121229 0:1 1:0 2:0 3:1 4:-1 5:-1 6:1 7:1 8:0 
0.4259765411630743 0:0 1:-1 2:1 3:0 4:0 5:1 6:1 7:-1 8:1 
1 0:0 1:1 2:1 3:1 4:0 5:1 6:0 7:0 8:1 
1 0:1 1:-1 2:1 3:1 4:-1 5:0 6:1 7:0 8:0 
1 0:1 1:0 2:0 3:1 4:0 5:1 6:1 7:-1 8:-1 
0.2689222534079503 0:-1 1:0 2:1 3:-1 4:0 5:1 6:-1 7:-1 8:1 
0.4133146619269388 0:1 1:-1 2:-1 3:0 4:1 5:-1 6:-1 7:0 8:1 
1 0:-1 1:0 2:1 3:0 4:-1 5:1 6:0 7:1 8:1 
1 0:1 1:-1 2:0 3:1 4:1 5:0 6:-1 7:0 8:1 
1 0:0 1:-1 2:1 3:0 4:1 5:0 6:1 7:1 8:-1 
1 0:1 1:1 2:0 3:-1 4:1 5:0 6:0 7:-1 8:1 
1 0:0 1:0 2:-1 3:0 4:-1 5:1 6:1 7:1 8:1 
1 0:-1 1:1 2:0 3:0 4:-1 5:0 6:1 7:1 8:1 
1 0:0 1:1 2:-1 3:1 4:1 5:1 6:0 7:-1 8:0 
1 0:1 1:-1 2:-1 3:-1 4:1 5:0 6:0 7:-1 8:1 
0.2879054513438401 0:1 1:1 2:1 3:0 4:-1 5:-1 6:-1 7:-1 8:0 
1 0:0 1:0 2:1 3:-1 4:1 5:0 6:1 7:1 8:-1 
1 0:1 1:1 2:1 3:0 4:0 5:-1 6:-1 7:1 8:0 
1 0:0 1:-1 2:1 3:0 4:0 5:1 6:-1 7:1 8:1 
1 0:1 1:1 2:0 3:1 4:1 5:0 6:0 7:0 8:1 
1 0:1 1:-1 2:1 3:1 4:0 5:0 6:1 7:0 8:-1 
0.8089384114143638 0:1 1:0 2:-1 3:0 4:1 5:0 6:-1 7:1 8:1 
1 0:0 1:1 2:1 3:0 4:1 5:-1 6:-1 7:1 8:0 
0.1978654409724816 0:1 1:1 2:1 3:-1 4:0 5:1 6:-1 7:0 8:0 
1 0:1 1:-1 2:0 3:0 4:1 5:0 6:-1 7:1 8:1 
1 0:1 1:0 2:0 3:0 4:0 5:1 6:1 7:1 8:1 
1 0:-1 1:1 2:1 3:0 4:1 5:-1 6:0 7:1 8:0 
1 0:0 1:1 2:-1 3:0 4:1 5:1 6:-1 7:1 8:0 
1 0:-1 1:0 2:1 3:1 4:1 5:-1 6:1 7:0 8:0 
1 0:1 1:1 2:0 3:1 4:0 5:-1 6:1 7:-1 8:0 
1 0:1 1:-1 2:0 3:1 4:-1 5:1 6:1 7:0 8:0 
1 0:0 1:1 2:-1 3:0 4:-1 5:0 6:1 7:1 8:1 
1 0:1 1:1 2:1 3:1 4:-1 5:0 6:0 7:-1 8:0 
1 0:-1 1:1 2:0 3:-1 4:0 5:0 6:1 7:1 8:1 
1 0:1 1:0 2:0 3:1 4:0 5:-1 6:1 7:-1 8:1 
1 0:1 1:0 2:-1 3:-1 4:0 5:0 6:1 7:1 8:1 
1 0:1 1:-1 2:0 3:-1 4:1 5:1 6:0 7:0 8:1 
1 0:1 1:1 2:1 3:-1 4:0 5:0 6:1 7:-1 8:0 
1 0:1 1:1 2:1 3:1 4:0 5:-1 6:0 7:0 8:-1 
1 0:0 1:0 2:-1 3:1 4:-1 5:0 6:1 7:1 8:1 
1 0:1 1:1 2:1 3:0 4:0 5:1 6:0 7:-1 8:-1 
1 0:0 1:0 2:-1 3:1 4:1 5:1 6:1 7:-1 8:0 
0.1803996235836811 0:1 1:0 2:-1 3:1 4:0 5:-1 6:1 7:1 8:0 
1 0:0 1:0 2:1 3:-1 4:1 5:1 6:1 7:-1 8:0 
1 0:1 1:1 2:1 3:0 4:-1 5:0 6:0 7:1 8:-1 
1 0:0 1:1 2:1 3:-1 4:1 5:0 6:1 7:-1 8:0 
1 0:1 1:1 2:1 3:0 4:0 5:-1 6:0 7:-1 8:1 
1 0:0 1:1 2:1 3:-1 4:0 5:1 6:0 7:-1 8:1 
1 0:1 1:0 2:0 3:-1 4:1 5:0 6:1 7:-1 8:1 
1 0:0 1:-1 2:0 3:1 4:0 5:-1 6:1 7:1 8:1 
1 0:0 1:1 2:-1 3:0 4:1 5:0 6:1 7:1 8:-1 
1 0:1 1:0 2:0 3:0 4:1 5:-1 6:-1 7:1 8:1 
0.1998606827375646 0:-1 1:0 2:0 3:-1 4:0 5:1 6:1 7:1 8:1 
0.5247470476345415 0:0 1:0 2:1 3:-1 4:-1 5:1 6:0 7:1 8:1 
1 0:0 1:1 2:0 3:-1 4:1 5:1 6:-1 7:1 8:0 
1 0:0 1:1 2:0 3:-1 4:1 5:1 6:0 7:1 8:-1 
0.0927678620756668 0:1 1:0 2:-1 3:0 4:1 5:0 6:1 7:-1 8:1 
0.4892938820954541 0:1 1:1 2:1 3:0 4:-1 5:1 6:0 7:-1 8:0 
1 0:1 1:-1 2:0 3:1 4:1 5:1 6:0 7:0 8:-1 
1 0:0 1:0 2:1 3:-1 4:0 5:1 6:1 7:-1 8:1 
1 0:-1 1:0 2:0 3:1 4:0 5:-1 6:1 7:1 8:1 
0.98899093505577 0:1 1:0 2:0 3:-1 4:-1 5:0 6:1 7:1 8:1 
0.1922037242459373 0:1 1:0 2:1 3:1 4:1 5:0 6:0 7:0 8:1 
0.1053396565332997 0:0 1:1 2:1 3:0 4:1 5:0 6:1 7:0 8:1 
1 0:1 1:-1 2:0 3:1 4:0 5:1 6:1 7:-1 8:0 
1 0:-1 1:1 2:0 3:1 4:1 5:-1 6:0 7:1 8:0 
1 0:0 1:-1 2:1 3:0 4:1 5:1 6:1 7:0 8:-1 
0.3421897463276106 0:-1 1:0 2:1 3:0 4:1 5:1 6:1 7:-1 8:0 
1 0:1 1:1 2:1 3:0 4:-1 5:0 6:-1 7:1 8:0 
1 0:0 1:1 2:0 3:0 4:0 5:1 6:1 7:1 8:1 
1 0:1 1:0 2:0 3:1 4:-1 5:1 6:1 7:0 8:-1 
1 0:1 1:0 2:0 3:1 4:-1 5:0 6:1 7:-1 8:1 
1 0:-1 1:0 2:1 3:0 4:0 5:1 6:1 7:-1 8:1 
1 0:0 1:1 2:1 3:0 4:1 5:-1 6:1 7:-1 8:0 
1 0:1 1:1 2:1 3:-1 4:0 5:0 6:1 7:0 8:-1 
1 0:0 1:1 2:1 3:0 4:-1 5:1 6:-1 7:0 8:1 
1 0:1 1:1 2:1 3:0 4:-1 5:-1 6:0 7:1 8:0 
0.008783920844166303 0:-1 1:-1 2:-1 3:-1 4:0 5:0 6:1 7:1 8:1 
1 0:0 1:-1 2:1 3:1 4:1 5:-1 6:1 7:0 8:0 
0.978128153848459 0:-1 1:1 2:0 3:0 4:1 5:1 6:0 7:1 8:-1 
0.6467037940223802 0:-1 1:0 2:1 3:-1 4:-1 5:1 6:0 7:-1 8:1 
1 0:1 1:1 2:-1 3:-1 4:1 5:0 6:0 7:1 8:0 
1 0:0 1:1 2:0 3:1 4:1 5:1 6:0 7:0 8:1 
1 0:1 1:1 2:1 3:-1 4:0 5:0 6:0 7:1 8:-1 
1 0:1 1:0 2:0 3:-1 4:1 5:1 6:0 7:-1 8:1 
1 0:1 1:1 2:1 3:1 4:0 5:0 6:0 7:1 8:0 
1 0:1 1:1 2:-1 3:1 4:0 5:0 6:1 7:0 8:-1 
0.7682840231159966 0:1 1:-1 2:1 3:0 4:-1 5:1 6:0 7:0 8:1 
1 0:-1 1:1 2:0 3:0 4:1 5:0 6:-1 7:1 8:1 
0.9642794068754773 0:-1 1:0 2:1 3:0 4:1 5:0 6:1 7:1 8:-1 
1 0:-1 1:-1 2:-1 3:1 4:1 5:1 6:0 7:-1 8:0 
1 0:1 1:1 2:1 3:0 4:0 5:1 6:1 7:0 8:0 
0.6534367117018877 0:0 1:1 2:-1 3:1 4:1 5:0 6:-1 7:1 8:0 
1 0:1 1:1 2:1 3:1 4:-1 5:0 6:-1 7:0 8:0 
1 0:1 1:-1 2:0 3:1 4:1 5:1 6:-1 7:0 8:0 
1 0:0 1:-1 2:0 3:1 4:1 5:1 6:0 7:1 8:-1 
0.02741300051059625 0:1 1:0 2:-1 3:0 4:1 5:1 6:-1 7:0 8:1 
1 0:-1 1:0 2:1 3:0 4:0 5:1 6:-1 7:1 8:1 
1 0:0 1:0 2:1 3:0 4:1 5:-1 6:1 7:-1 8:1 
1 0:1 1:1 2:1 3:0 4:-1 5:1 6:-1 7:0 8:0 
0.7825352744310408 0:1 1:1 2:1 3:-1 4:-1 5:0 6:1 7:0 8:0 
0.6264428038234986 0:1 1:0 2:-1 3:0 4:1 5:-1 6:-1 7:-1 8:1 
1 0:0 1:-1 2:1 3:1 4:-1 5:1 6:0 7:0 8:1 
1 0:0 1:1 2:0 3:0 4:1 5:1 6:1 7:1 8:0 
0.01130408281311012 0:1 1:0 2:1 3:0 4:1 5:-1 6:-1 7:0 8:1 
0.1824342717813477 0:1 1:0 2:-1 3:1 4:1 5:1 6:-1 7:0 8:0 
1 0:1 1:0 2:0 3:1 4:1 5:1 6:-1 7:0 8:-1 
1 0:-1 1:0 2:1 3:0 4:1 5:1 6:1 7:0 8:-1 
1 0:1 1:1 2:0 3:1 4:0 5:0 6:1 7:0 8:1 
1 0:1 1:-1 2:0 3:1 4:1 5:-1 6:0 7:0 8:1 
1 0:1 1:1 2:0 3:0 4:1 5:-1 6:0 7:-1 8:1 
1 0:1 1:-1 2:0 3:-1 4:0 5:0 6:1 7:1 8:1 
1 0:1 1:1 2:1 3:-1 4:0 5:1 6:0 7:-1 8:0 
1 0:1 1:1 2:-1 3:1 4:-1 5:0 6:1 7:0 8:0 
1 0:0 1:-1 2:1 3:-1 4:1 5:0 6:1 7:1 8:0 
1 0:-1 1:0 2:1 3:1 4:1 5:0 6:1 7:0 8:-1 
1 0:1 1:0 2:-1 3:1 4:0 5:1 6:1 7:-1 8:0 
0.02322926698094642 0:-1 1:0 2:0 3:1 4:1 5:1 6:1 7:0 8:-1 
0.03341370027154066 0:0 1:-1 2:-1 3:1 4:1 5:1 6:0 7:0 8:1 
1 0:0 1:0 2:1 3:1 4:1 5:0 6:1 7:0 8:1 
1 0:-1 1:0 2:0 3:1 4:1 5:1 6:0 7:-1 8:1 
0.3804623849172305 0:1 1:0 2:-1 3:-1 4:1 5:0 6:-1 7:-1 8:1 
1 0:-1 1:0 2:1 3:1 4:-1 5:1 6:0 7:0 8:1 
0.8553172842577046 0:0 1:1 2:1 3:-1 4:0 5:1 6:-1 7:0 8:1 
1 0:1 1:1 2:0 3:0 4:1 5:1 6:0 7:0 8:1 
1 0:-1 1:0 2:1 3:1 4:0 5:1 6:0 7:-1 8:1 
1 0:-1 1:0 2:1 3:0 4:0 5:-1 6:1 7:1 8:1 
1 0:0 1:-1 2:0 3:-1 4:0 5:1 6:1 7:1 8:1 
1 0:1 1:1 2:1 3:0 4:0 5:-1 6:0 7:1 8:-1 
0.3849625588337673 0:1 1:0 2:0 3:-1 4:1 5:0 6:-1 7:1 8:1 
1 0:1 1:1 2:1 3:1 4:0 5:0 6:1 7:0 8:0 
1 0:0 1:-1 2:0 3:1 4:1 5:1 6:-1 7:1 8:0 
1 0:0 1:0 2:1 3:0 4:-1 5:1 6:1 7:-1 8:1 
1 0:1 1:0 2:0 3:1 4:1 5:1 6:0 7:1 8:0 
1 0:0 1:-1 2:0 3:1 4:-1 5:0 6:1 7:1 8:1 
1 0:-1 1:0 2:0 3:1 4:1 5:1 6:1 7:-1 8:0 
1 0:0 1:1 2:1 3:1 4:1 5:0 6:1 7:0 8:0 
1 0:1 1:1 2:-1 3:-1 4:1 5:0 6:0 7:0 8:1 
0.231527803530885 0:-1 1:-1 2:0 3:0 4:-1 5:-1 6:1 7:1 8:1 
1 0:0 1:-1 2:1 3:1 4:0 5:1 6:0 7:-1 8:1 
1 0:1 1:0 2:-1 3:-1 4:1 5:1 6:0 7:0 8:1 
0.3666605286417 0:-1 1:0 2:1 3:0 4:1 5:-1 6:1 7:-1 8:-1 
0.604157137927419 0:-1 1:-1 2:1 3:-1 4:0 5:1 6:-1 7:0 8:1 
0.5538935473174629 0:1 1:0 2:-1 3:1 4:-1 5:-1 6:1 7:-1 8:0 
1 0:0 1:1 2:0 3:1 4:0 5:0 6:1 7:1 8:1 
1 0:1 1:0 2:-1 3:1 4:-1 5:0 6:1 7:1 8:0 
1 0:1 1:-1 2:1 3:0 4:1 5:-1 6:0 7:0 8:1 
1 0:0 1:-1 2:-1 3:1 4:1 5:1 6:0 7:1 8:0 
1 0:0 1:-1 2:1 3:0 4:1 5:-1 6:1 7:1 8:0 
0.6066138218002203 0:0 1:-1 2:0 3:0 4:-1 5:1 6:1 7:1 8:1 
1 0:1 1:1 2:-1 3:1 4:0 5:0 6:1 7:-1 8:0 
1 0:1 1:1 2:1 3:1 4:-1 5:0 6:0 7:0 8:-1 
1 0:-1 1:1 2:1 3:0 4:1 5:-1 6:1 7:0 8:0 
1 0:0 1:0 2:1 3:1 4:0 5:1 6:-1 7:-1 8:1 
1 0:0 1:1 2:0 3:-1 4:-1 5:0 6:1 7:1 8:1 
1 0:1 1:-1 2:1 3:0 4:0 5:1 6:-1 7:0 8:1 
0.06512241227071563 0:1 1:0 2:-1 3:1 4:1 5:0 6:-1 7:0 8:1 
1 0:1 1:-1 2:-1 3:0 4:1 5:1 6:0 7:0 8:1 
1 0:1 1:1 2:-1 3:0 4:1 5:0 6:0 7:1 8:-1 
1 0:0 1:0 2:1 3:1 4:0 5:1 6:0 7:1 8:1 
1 0:1 1:-1 2:0 3:0 4:1 5:-1 6:0 7:1 8:1 
1 0:0 1:1 2:0 3:-1 4:0 5:-1 6:1 7:1 8:1 
1 0:1 1:-1 2:0 3:1 4:0 5:1 6:1 7:0 8:-1 
1 0:1 1:1 2:1 3:0 4:-1 5:-1 6:0 7:0 8:1 
0.2275084927461309 0:1 1:1 2:1 3:-1 4:-1 5:-1 6:0 7:-1 8:0 
1 0:1 1:1 2:0 3:1 4:0 5:1 6:1 7:0 8:0 
1 0:0 1:-1 2:1 3:1 4:1 5:1 6:0 7:0 8:-1 
1 0:1 1:-1 2:0 3:1 4:0 5:-1 6:1 7:1 8:0 
1 0:0 1:1 2:-1 3:-1 4:0 5:0 6:1 7:1 8:1 
1 0:1 1:0 2:0 3:1 4:1 5:-1 6:0 7:-1 8:1 
0.6126875725367931 0:1 1:0 2:0 3:1 4:0 5:0 6:1 7:1 8:1 
1 0:1 1:0 2:0 3:1 4:1 5:0 6:0 7:1 8:1 
0.5057999139564532 0:0 1:1 2:1 3:0 4:1 5:0 6:1 7:-1 8:-1 
0.3742061534506092 0:1 1:1 2:1 3:-1 4:0 5:0 6:-1 7:-1 8:-1 
1 0:0 1:0 2:-1 3:1 4:1 5:1 6:0 7:-1 8:1 
0.5352135074679851 0:1 1:-1 2:1 3:0 4:1 5:0 6:-1 7:0 8:1 
1 0:1 1:1 2:1 3:-1 4:0 5:0 6:-1 7:1 8:0 
1 0:-1 1:0 2:1 3:-1 4:1 5:-1 6:1 7:-1 8:0 
1 0:0 1:0 2:-1 3:1 4:0 5:-1 6:1 7:1 8:1 
1 0:0 1:1 2:1 3:0 4:0 5:1 6:1 7:0 8:1 
1 0:1 1:0 2:-1 3:1 4:-1 5:1 6:1 7:0 8:0 
1 0:0 1:1 2:-1 3:-1 4:1 5:1 6:0 7:1 8:0 
1 0:0 1:-1 2:-1 3:0 4:0 5:1 6:1 7:1 8:1 
1 0:1 1:0 2:0 3:1 4:0 5:1 6:1 7:1 8:0 
0.6944921799365837 0:1 1:-1 2:-1 3:1 4:0 5:-1 6:1 7:0 8:-1 
1 0:1 1:1 2:1 3:-1 4:0 5:-1 6:0 7:1 8:0 
1 0:1 1:-1 2:0 3:-1 4:1 5:0 6:0 7:1 8:1 
0.6904223674289471 0:1 1:1 2:-1 3:0 4:1 5:-1 6:0 7:0 8:1 
0.9043753753278311 0:0 1:-1 2:1 3:-1 4:1 5:-1 6:1 7:0 8:-1 
1 0:1 1:0 2:0 3:0 4:1 5:1 6:0 7:1 8:1 
1 0:-1 1:1 2:0 3:1 4:1 5:0 6:0 7:1 8:-1 
1 0:-1 1:0 2:0 3:0 4:-1 5:1 6:1 7:1 8:1 
1 0:-1 1:0 2:0 3:1 4:-1 5:0 6:1 7:1 8:1 
0.1276935379274673 0:0 1:-1 2:-1 3:1 4:1 5:1 6:-1 7:0 8:-1 
0.04701995313354325 0:-1 1:-1 2:1 3:0 4:1 5:-1 6:1 7:-1 8:0 
0.7138620753463428 0:-1 1:-1 2:-1 3:0 4:0 5:-1 6:1 7:1 8:1 
1 0:0 1:0 2:1 3:1 4:-1 5:1 6:-1 7:0 8:1 
1 0:-1 1:-1 2:0 3:1 4:0 5:0 6:1 7:1 8:1 
0.6034501117318154 0:-1 1:0 2:1 3:0 4:1 5:-1 6:1 7:0 8:1 
1 0:0 1:0 2:1 3:-1 4:1 5:1 6:1 7:0 8:-1 
0.8940537883773614 0:0 1:0 2:1 3:1 4:1 5:1 6:-1 7:0 8:-1 
0.06969863378604159 0:0 1:0 2:-1 3:1 4:1 5:1 6:-1 7:0 8:1 
1 0:0 1:0 2:1 3:1 4:0 5:0 6:1 7:1 8:1 
1 0:1 1:-1 2:1 3:1 4:0 5:-1 6:1 7:0 8:0 
1 0:1 1:1 2:1 3:1 4:0 5:0 6:-1 7:-1 8:0 
1 0:1 1:0 2:-1 3:1 4:0 5:0 6:1 7:-1 8:1 
1 0:0 1:1 2:0 3:1 4:1 5:-1 6:-1 7:1 8:0 
1 0:0 1:0 2:1 3:0 4:-1 5:1 6:-1 7:1 8:1 
1 0:1 1:1 2:1 3:-1 4:0 5:1 6:0 7:0 8:-1 
1 0:1 1:1 2:-1 3:0 4:1 5:0 6:0 7:-1 8:1 
0.4215391309080579 0:0 1:-1 2:1 3:1 4:1 5:1 6:-1 7:0 8:0 
1 0:0 1:1 2:0 3:0 4:-1 5:-1 6:1 7:1 8:1 
1 0:0 1:1 2:0 3:0 4:1 5:-1 6:-1 7:1 8:1 
1 0:-1 1:1 2:1 3:-1 4:0 5:1 6:0 7:0 8:1 
1 0:1 1:1 2:1 3:0 4:0 5:-1 6:-1 7:0 8:1 
1 0:1 1:1 2:0 3:0 4:1 5:1 6:0 7:1 8:0 
1 0:-1 1:1 2:0 3:0 4:0 5:-1 6:1 7:1 8:1 
1 0:-1 1:-1 2:1 3:1 4:1 5:0 6:1 7:0 8:0 
1 0:-1 1:1 2:0 3:0 4:1 5:-1 6:0 7:1 8:1 
1 0:1 1:0 2:-1 3:1 4:0 5:0 6:1 7:1 8:-1 
1 0:1 1:0 2:0 3:1 4:0 5:-1 6:1 7:1 8:-1 
1 0:1 1:-1 2:1 3:-1 4:0 5:1 6:0 7:0 8:1 
0.1068855051583513 0:-1 1:1 2:0 3:1 4:1 5:1 6:-1 7:0 8:0 
1 0:1 1:0 2:1 3:0 4:0 5:1 6:0 7:1 8:1 
1 0:1 1:0 2:-1 3:0 4:1 5:1 6:0 7:-1 8:1 
1 0:0 1:1 2:-1 3:1 4:1 5:-1 6:0 7:1 8:0 
1 0:0 1:1 2:-1 3:-1 4:1 5:0 6:1 7:1 8:0 
0.09341817449733442 0:0 1:0 2:-1 3:-1 4:-1 5:-1 6:1 7:1 8:1 
0.419375061310145 0:0 1:-1 2:-1 3:-1 4:-1 5:0 6:1 7:1 8:1 
1 0:0 1:1 2:0 3:-1 4:1 5:0 6:1 7:1 8:-1 
1 0:0 1:1 2:1 3:1 4:1 5:0 6:0 7:1 8:0 
0.8603898601319868 0:1 1:1 2:0 3:-1 4:1 5:0 6:0 7:1 8:-1 
1 0:0 1:0 2:1 3:1 4:1 5:-1 6:1 7:-1 8:0 
1 0:0 1:1 2:1 3:0 4:1 5:1 6:1 7:0 8:0 
1 0:-1 1:1 2:0 3:-1 4:1 5:1 6:0 7:1 8:0 
1 0:1 1:-1 2:1 3:-1 4:1 5:0 6:1 7:0 8:0 
1 0:-1 1:1 2:0 3:1 4:1 5:1 6:0 7:-1 8:0 
1 0:0 1:1 2:-1 3:0 4:0 5:-1 6:1 7:1 8:1 
1 0:1 1:-1 2:0 3:1 4:0 5:0 6:1 7:1 8:-1 
0.4927347558587557 0:1 1:1 2:1 3:0 4:0 5:1 6:0 7:0 8:1 
0.9103043817749916 0:0 1:1 2:1 3:-1 4:-1 5:1 6:0 7:0 8:1 
1 0:0 1:1 2:0 3:1 4:1 5:0 6:0 7:1 8:1 
1 0:1 1:0 2:1 3:1 4:0 5:0 6:1 7:1 8:0 
0.1730610717742 0:-1 1:-1 2:1 3:-1 4:1 5:0 6:1 7:0 8:-1 
1 0:1 1:1 2:1 3:0 4:0 5:1 6:-1 7:0 8:-1 
1 0:0 1:-1 2:1 3:-1 4:0 5:1 6:0 7:1 8:1 
0.2925014852488428 0:1 1:0 2:0 3:1 4:1 5:0 6:-1 7:-1 8:1 
0.4833169936944975 0:-1 1:0 2:1 3:0 4:-1 5:1 6:1 7:0 8:1 
1 0:1 1:1 2:0 3:1 4:-1 5:0 6:1 7:0 8:-1 
1 0:1 1:1 2:1 3:0 4:-1 5:1 6:0 7:0 8:-1 
1 0:0 1:0 2:-1 3:-1 4:0 5:1 6:1 7:1 8:1 
1 0:0 1:1 2:-1 3:1 4:1 5:1 6:-1 7:0 8:0 
1 0:-1 1:1 2:0 3:-1 4:1 5:-1 6:-1 7:1 8:0 
0.2734551497552175 0:1 1:1 2:1 3:-1 4:0 5:-1 6:-1 7:-1 8:0 
1 0:0 1:1 2:0 3:1 4:1 5:1 6:1 7:0 8:0 
1 0:-1 1:-1 2:0 3:1 4:1 5:1 6:0 7:1 8:0 
0.384842497641519 0:1 1:1 2:0 3:0 4:1 5:0 6:-1 7:-1 8:1 
1 0:-1 1:0 2:-1 3:0 4:0 5:1 6:1 7:1 8:1 
1 0:0 1:0 2:1 3:1 4:-1 5:1 6:0 7:-1 8:1 
0.9196610659393483 0:0 1:0 2:1 3:0 4:-1 5:-1 6:1 7:1 8:1 
1 0:0 1:1 2:0 3:1 4:1 5:-1 6:0 7:1 8:-1 
1 0:1 1:1 2:1 3:-1 4:-1 5:0 6:0 7:1 8:0 
0.8602783176373655 0:1 1:1 2:0 3:1 4:0 5:0 6:1 7:-1 8:-1 
0.7204451866609782 0:1 1:1 2:0 3:1 4:-1 5:-1 6:1 7:0 8:0 
1 0:1 1:0 2:0 3:1 4:1 5:-1 6:-1 7:0 8:1 
0.3130940975243445 0:-1 1:0 2:-1 3:1 4:1 5:1 6:0 7:-1 8:-1 
1 0:1 1:0 2:0 3:1 4:-1 5:1 6:1 7:-1 8:0 
1 0:0 1:0 2:1 3:0 4:1 5:1 6:1 7:1 8:0 
1 0:-1 1:1 2:1 3:0 4:0 5:1 6:-1 7:0 8:1 
0.07393321589770213 0:1 1:0 2:-1 3:1 4:-1 5:0 6:1 7:0 8:1 
0.08483354967000582 0:1 1:-1 2:1 3:0 4:1 5:0 6:1 7:0 8:-1 
0.1508797267501629 0:-1 1:0 2:0 3:1 4:1 5:1 6:0 7:1 8:-1 
0.1793024821337454 0:0 1:0 2:1 3:0 4:0 5:1 6:1 7:1 8:1 
1 0:1 1:-1 2:0 3:-1 4:1 5:-1 6:-1 7:0 8:1 
0.06522789588004428 0:1 1:1 2:1 3:-1 4:-1 5:0 6:0 7:-1 8:-1 
1 0:-1 1:1 2:1 3:0 4:1 5:0 6:1 7:-1 8:0 
0.6410929232900708 0:-1 1:1 2:1 3:-1 4:1 5:0 6:1 7:0 8:0 
1 0:1 1:1 2:1 3:0 4:0 5:1 6:0 7:1 8:0 
1 0:0 1:-1 2:1 3:-1 4:1 5:0 6:1 7:-1 8:-1 
1 0:0 1:-1 2:1 3:0 4:0 5:-1 6:1 7:1 8:1 
0.4774881483261507 0:-1 1:1 2:-1 3:-1 4:1 5:0 6:0 7:1 8:-1 
1 0:1 1:1 2:1 3:1 4:0 5:-1 6:-1 7:0 8:0 
1 0:-1 1:-1 2:1 3:0 4:0 5:1 6:0 7:1 8:1 
0.08492057507704097 0:0 1:1 2:-1 3:1 4:1 5:1 6:0 7:0 8:-1 
-1 0:1 1:0 2:0 3:-1 4:0 5:1 6:0 7:1 8:1 
-1 0:0 1:0 2:0 3:0 4:1 5:1 6:-1 7:1 8:1 
-1 0:0 1:1 2:1 3:1 4:0 5:-1 6:1 7:0 8:0 
-1 0:0 1:1 2:1 3:0 4:0 5:1 6:-1 7:1 8:0 
-1 0:1 1:-1 2:-1 3:1 4:-1 5:1 6:0 7:0 8:0 
-1 0:0 1:1 2:-1 3:-1 4:0 5:-1 6:1 7:1 8:0 
-1 0:1 1:-1 2:0 3:1 4:0 5:-1 6:0 7:-1 8:1 
-1 0:1 1:1 2:0 3:-1 4:0 5:-1 6:0 7:1 8:-1 
-1 0:0 1:0 2:0 3:0 4:1 5:1 6:1 7:-1 8:1 
-1 0:1 1:1 2:0 3:1 4:0 5:0 6:0 7:1 8:-1 
-1 0:0 1:1 2:1 3:1 4:0 5:1 6:0 7:-1 8:0 
-1 0:0 1:0 2:1 3:0 4:1 5:-1 6:0 7:1 8:1 
-0.7508595993955161 0:1 1:1 2:-1 3:0 4:0 5:0 6:-1 7:1 8:-1 
-1 0:0 1:1 2:1 3:-1 4:0 5:1 6:-1 7:-1 8:0 
-0.9308630864162225 0:-1 1:0 2:1 3:1 4:0 5:-1 6:1 7:0 8:-1 
-1 0:0 1:1 2:0 3:0 4:1 5:1 6:1 7:0 8:1 
-1 0:1 1:0 2:1 3:1 4:0 5:1 6:0 7:0 8:-1 
-1 0:1 1:1 2:0 3:1 4:-1 5:1 6:0 7:0 8:0 
-1 0:0 1:0 2:0 3:-1 4:1 5:-1 6:1 7:-1 8:1 
-1 0:1 1:0 2:1 3:-1 4:0 5:1 6:1 7:0 8:0 
-1 0:1 1:1 2:0 3:1 4:0 5:-1 6:0 7:1 8:0 
-1 0:0 1:1 2:0 3:-1 4:0 5:1 6:0 7:1 8:1 
-1 0:-1 1:-1 2:0 3:1 4:1 5:0 6:1 7:-1 8:0 
-1 0:1 1:0 2:0 3:0 4:1 5:1 6:1 7:1 8:0 
-1 0:0 1:0 2:0 3:-1 4:1 5:1 6:0 7:1 8:1 
-1 0:0 1:-1 2:0 3:1 4:0 5:1 6:0 7:1 8:1 
-1 0:-1 1:1 2:1 3:-1 4:-1 5:1 6:0 7:0 8:0 
-1 0:1 1:0 2:1 3:-1 4:0 5:-1 6:1 7:0 8:-1 
-1 0:0 1:0 2:0 3:1 4:1 5:-1 6:-1 7:-1 8:1 
-1 0:0 1:-1 2:0 3:0 4:1 5:1 6:0 7:1 8:1 
-1 0:1 1:1 2:0 3:1 4:0 5:0 6:0 7:-1 8:1 
-1 0:1 1:1 2:0 3:1 4:0 5:-1 6:0 7:0 8:1 
-0.533377093739272 0:0 1:-1 2:1 3:-1 4:0 5:1 6:-1 7:1 8:0 
-1 0:1 1:-1 2:1 3:0 4:0 5:0 6:1 7:1 8:0 
-1 0:0 1:0 2:0 3:1 4:0 5:1 6:1 7:-1 8:1 
-1 0:1 1:-1 2:-1 3:-1 4:1 5:1 6:0 7:0 8:0 
-1 0:0 1:1 2:-1 3:0 4:-1 5:-1 6:0 7:1 8:1 
-1 0:0 1:1 2:1 3:0 4:-1 5:-1 6:0 7:-1 8:1 
-0.8949882344366658 0:-1 1:1 2:0 3:-1 4:-1 5:0 6:1 7:1 8:0 
-1 0:1 1:1 2:0 3:-1 4:0 5:1 6:0 7:1 8:0 
-1 0:-1 1:1 2:1 3:0 4:0 5:0 6:1 7:0 8:1 
-1 0:1 1:1 2:-1 3:0 4:0 5:0 6:0 7:1 8:1 
-1 0:0 1:-1 2:1 3:1 4:0 5:0 6:1 7:1 8:0 
-1 0:0 1:1 2:1 3:0 4:0 5:1 6:0 7:1 8:-1 
-1 0:0 1:0 2:0 3:-1 4:1 5:1 6:1 7:1 8:0 
-1 0:1 1:-1 2:1 3:1 4:-1 5:-1 6:0 7:0 8:0 
-0.7314919735624859 0:1 1:0 2:0 3:1 4:0 5:1 6:0 7:1 8:-1 
-1 0:0 1:1 2:1 3:0 4:0 5:-1 6:0 7:1 8:1 
-1 0:0 1:1 2:1 3:1 4:0 5:0 6:1 7:0 8:1 
-1 0:0 1:1 2:1 3:1 4:0 5:0 6:0 7:1 8:1 
-1 0:1 1:1 2:-1 3:1 4:-1 5:-1 6:0 7:0 8:0 
-0.2036947348258121 0:0 1:1 2:-1 3:1 4:0 5:1 6:1 7:0 8:0 
-1 0:-1 1:1 2:1 3:-1 4:1 5:-1 6:0 7:0 8:0 
-1 0:1 1:-1 2:1 3:1 4:1 5:0 6:0 7:0 8:0 
-1 0:1 1:0 2:-1 3:1 4:0 5:1 6:-1 7:0 8:-1 
-1 0:-1 1:0 2:1 3:1 4:0 5:0 6:1 7:0 8:1 
-1 0:0 1:0 2:0 3:1 4:-1 5:1 6:1 7:-1 8:-1 
-1 0:0 1:1 2:-1 3:0 4:1 5:1 6:0 7:-1 8:-1 
-1 0:1 1:-1 2:0 3:-1 4:0 5:1 6:0 7:-1 8:1 
-1 0:1 1:1 2:0 3:-1 4:0 5:0 6:0 7:1 8:1 
-1 0:1 1:0 2:1 3:1 4:0 5:-1 6:-1 7:0 8:-1 
-1 0:1 1:0 2:1 3:0 4:0 5:0 6:1 7:-1 8:1 
-1 0:0 1:1 2:1 3:1 4:1 5:-1 6:0 7:0 8:0 
-1 0:0 1:-1 2:-1 3:0 4:-1 5:1 6:0 7:1 8:1 
-1 0:0 1:0 2:0 3:-1 4:1 5:1 6:-1 7:-1 8:1 
-1 0:1 1:0 2:1 3:0 4:0 5:1 6:1 7:0 8:-1 
-1 0:1 1:1 2:0 3:1 4:1 5:-1 6:0 7:0 8:0 
-1 0:0 1:1 2:-1 3:1 4:0 5:0 6:1 7:1 8:0 
-1 0:1 1:-1 2:1 3:0 4:0 5:0 6:1 7:-1 8:-1 
-1 0:-1 1:-1 2:0 3:1 4:1 5:0 6:-1 7:1 8:0 
-1 0:0 1:-1 2:-1 3:0 4:1 5:-1 6:0 7:1 8:1 
-1 0:0 1:0 2:0 3:1 4:1 5:0 6:1 7:1 8:-1 
-1 0:1 1:1 2:0 3:-1 4:0 5:-1 6:0 7:-1 8:1 
-1 0:0 1:1 2:1 3:1 4:0 5:1 6:-1 7:0 8:0 
-1 0:1 1:-1 2:1 3:0 4:1 5:1 6:0 7:0 8:0 
-1 0:1 1:0 2:1 3:-1 4:0 5:1 6:-1 7:0 8:-1 
-1 0:1 1:-1 2:0 3:0 4:1 5:0 6:1 7:1 8:0 
-1 0:0 1:1 2:0 3:1 4:1 5:0 6:1 7:0 8:1 
-1 0:-1 1:-1 2:0 3:-1 4:1 5:0 6:1 7:1 8:0 
-1 0:1 1:1 2:0 3:0 4:0 5:0 6:1 7:1 8:-1 
-1 0:1 1:0 2:1 3:1 4:0 5:0 6:0 7:1 8:1 
-1 0:0 1:1 2:1 3:0 4:0 5:0 6:1 7:1 8:-1 
-1 0:0 1:1 2:1 3:-1 4:0 5:1 6:0 7:1 8:0 
-1 0:-1 1:0 2:-1 3:1 4:0 5:-1 6:1 7:0 8:1 
-1 0:0 1:1 2:0 3:1 4:0 5:-1 6:1 7:1 8:0 
-1 0:0 1:1 2:0 3:1 4:0 5:1 6:1 7:0 8:1 
-1 0:1 1:0 2:-1 3:-1 4:0 5:-1 6:1 7:0 8:1 
-1 0:1 1:-1 2:0 3:-1 4:1 5:0 6:1 7:-1 8:0 
-1 0:1 1:-1 2:-1 3:0 4:0 5:0 6:1 7:1 8:-1 
-1 0:0 1:1 2:0 3:1 4:1 5:0 6:1 7:-1 8:0 
-1 0:0 1:-1 2:1 3:0 4:1 5:0 6:0 7:1 8:1 
-1 0:1 1:0 2:1 3:0 4:0 5:0 6:-1 7:1 8:1 
-1 0:1 1:-1 2:1 3:-1 4:1 5:-1 6:0 7:0 8:0 
-1 0:1 1:1 2:0 3:0 4:0 5:1 6:0 7:-1 8:1 
-1 0:0 1:-1 2:1 3:0 4:0 5:1 6:1 7:1 8:0 
-1 0:1 1:0 2:0 3:1 4:0 5:-1 6:0 7:1 8:1 
-1 0:0 1:0 2:-1 3:1 4:0 5:1 6:1 7:0 8:1 
-1 0:0 1:-1 2:0 3:1 4:1 5:0 6:1 7:1 8:0 
-1 0:0 1:0 2:0 3:-1 4:-1 5:1 6:1 7:-1 8:1 
-1 0:1 1:1 2:0 3:1 4:0 5:-1 6:0 7:-1 8:-1 
-1 0:1 1:1 2:0 3:1 4:0 5:1 6:0 7:0 8:-1 
-1 0:0 1:1 2:1 3:0 4:0 5:0 6:1 7:-1 8:1 
-1 0:0 1:0 2:0 3:-1 4:1 5:-1 6:-1 7:1 8:1 
-0.7538281663277145 0:-1 1:-1 2:1 3:0 4:0 5:0 6:1 7:1 8:-1 
-1 0:0 1:0 2:0 3:1 4:1 5:-1 6:1 7:-1 8:-1 
-1 0:1 1:1 2:0 3:1 4:-1 5:0 6:-1 7:-1 8:0 
-1 0:1 1:1 2:0 3:0 4:0 5:1 6:1 7:0 8:1 
-1 0:0 1:-1 2:0 3:1 4:0 5:1 6:1 7:1 8:0 
-1 0:0 1:1 2:1 3:-1 4:0 5:-1 6:-1 7:1 8:0 
-1 0:-1 1:1 2:0 3:1 4:1 5:0 6:1 7:0 8:0 
-1 0:1 1:-1 2:0 3:-1 4:-1 5:0 6:1 7:1 8:0 
-1 0:-1 1:1 2:-1 3:0 4:0 5:0 6:1 7:1 8:-1 
-1 0:0 1:1 2:1 3:-1 4:0 5:0 6:1 7:1 8:0 
-1 0:1 1:0 2:0 3:-1 4:0 5:1 6:1 7:0 8:1 
-1 0:-1 1:1 2:0 3:-1 4:0 5:-1 6:0 7:1 8:1 
-1 0:0 1:1 2:1 3:-1 4:1 5:1 6:0 7:0 8:0 
-1 0:0 1:1 2:-1 3:0 4:1 5:1 6:0 7:0 8:1 
-1 0:0 1:0 2:0 3:1 4:1 5:-1 6:1 7:1 8:0 
-1 0:1 1:1 2:-1 3:0 4:0 5:0 6:1 7:-1 8:-1 
-1 0:-1 1:0 2:1 3:1 4:0 5:1 6:1 7:0 8:0 
-1 0:1 1:-1 2:0 3:0 4:0 5:1 6:0 7:1 8:1 
-1 0:1 1:0 2:0 3:1 4:1 5:0 6:-1 7:1 8:0 
-1 0:0 1:-1 2:1 3:-1 4:0 5:1 6:1 7:-1 8:0 
-1 0:-1 1:-1 2:1 3:1 4:1 5:-1 6:0 7:0 8:0 
-1 0:1 1:1 2:0 3:-1 4:-1 5:0 6:1 7:-1 8:0 
-1 0:1 1:0 2:0 3:1 4:0 5:1 6:0 7:-1 8:1 
-1 0:1 1:1 2:0 3:0 4:0 5:0 6:-1 7:1 8:1 
-1 0:1 1:-1 2:0 3:1 4:0 5:0 6:0 7:1 8:1 
-0.2938493360002472 0:0 1:1 2:1 3:1 4:0 5:0 6:-1 7:1 8:0 
-1 0:0 1:0 2:0 3:1 4:-1 5:-1 6:1 7:-1 8:1 
-0.5712294501703946 0:1 1:1 2:0 3:1 4:-1 5:0 6:0 7:1 8:0 
-1 0:1 1:-1 2:0 3:-1 4:1 5:0 6:-1 7:1 8:0 
-1 0:-1 1:0 2:-1 3:-1 4:0 5:1 6:1 7:0 8:1 
-1 0:0 1:0 2:0 3:1 4:-1 5:1 6:1 7:0 8:1 
-1 0:0 1:0 2:0 3:1 4:1 5:-1 6:-1 7:1 8:-1 
-1 0:-1 1:1 2:1 3:1 4:1 5:0 6:0 7:0 8:0 
-1 0:0 1:1 2:1 3:-1 4:0 5:-1 6:1 7:-1 8:0 
-1 0:-1 1:1 2:1 3:0 4:0 5:0 6:-1 7:1 8:-1 
-1 0:0 1:0 2:-1 3:0 4:1 5:1 6:0 7:1 8:1 
-0.04610177785329909 0:0 1:0 2:0 3:1 4:0 5:1 6:1 7:1 8:-1 
-1 0:1 1:-1 2:0 3:1 4:1 5:0 6:0 7:1 8:0 
-0.6179544937982803 0:0 1:1 2:-1 3:0 4:0 5:1 6:0 7:1 8:1 
-1 0:1 1:-1 2:-1 3:1 4:1 5:-1 6:0 7:0 8:0 
-1 0:0 1:0 2:0 3:-1 4:1 5:-1 6:1 7:1 8:-1 
-1 0:1 1:-1 2:0 3:1 4:0 5:1 6:0 7:0 8:1 
-1 0:0 1:0 2:0 3:0 4:1 5:1 6:1 7:1 8:-1 
-1 0:-1 1:1 2:1 3:0 4:0 5:0 6:0 7:1 8:1 
-1 0:0 1:1 2:1 3:0 4:1 5:0 6:0 7:-1 8:1 
-1 0:0 1:1 2:1 3:0 4:1 5:1 6:0 7:-1 8:0 
-1 0:-1 1:1 2:-1 3:-1 4:1 5:1 6:0 7:0 8:0 
-1 0:0 1:1 2:1 3:-1 4:0 5:1 6:1 7:0 8:0 
-1 0:0 1:1 2:-1 3:0 4:1 5:-1 6:0 7:-1 8:1 
-1 0:-1 1:1 2:0 3:0 4:0 5:1 6:0 7:1 8:1 
-1 0:0 1:0 2:1 3:1 4:0 5:-1 6:1 7:1 8:0 
-1 0:0 1:-1 2:1 3:1 4:0 5:1 6:1 7:0 8:0 
-1 0:0 1:-1 2:-1 3:0 4:1 5:1 6:0 7:1 8:-1 
-0.1489230039450582 0:1 1:1 2:0 3:0 4:0 5:1 6:0 7:1 8:-1 
-1 0:-1 1:1 2:1 3:0 4:0 5:0 6:1 7:1 8:0 
-1 0:0 1:0 2:1 3:1 4:0 5:-1 6:1 7:0 8:1 
-1 0:0 1:0 2:1 3:1 4:0 5:1 6:1 7:0 8:-1 
-1 0:0 1:1 2:1 3:0 4:1 5:-1 6:0 7:-1 8:-1 
-1 0:1 1:1 2:0 3:0 4:0 5:-1 6:0 7:1 8:1 
-1 0:-1 1:-1 2:1 3:0 4:0 5:0 6:-1 7:1 8:1 
-1 0:-1 1:1 2:1 3:0 4:0 5:0 6:-1 7:-1 8:1 
-1 0:1 1:1 2:-1 3:-1 4:1 5:-1 6:0 7:0 8:0 
-0.6917144206187124 0:-1 1:0 2:1 3:-1 4:0 5:1 6:1 7:0 8:-1 
-1 0:1 1:1 2:0 3:0 4:0 5:0 6:1 7:-1 8:1 
-1 0:1 1:0 2:-1 3:0 4:0 5:1 6:1 7:0 8:1 
-1 0:-1 1:1 2:-1 3:1 4:1 5:-1 6:0 7:0 8:0 
-1 0:1 1:0 2:1 3:1 4:0 5:0 6:-1 7:0 8:1 
-1 0:1 1:1 2:0 3:-1 4:1 5:0 6:-1 7:-1 8:0 
-1 0:0 1:0 2:0 3:1 4:-1 5:1 6:0 7:1 8:1 
-1 0:0 1:0 2:0 3:1 4:-1 5:-1 6:1 7:1 8:-1 
-1 0:1 1:1 2:-1 3:0 4:0 5:0 6:1 7:0 8:1 
-1 0:0 1:-1 2:1 3:-1 4:0 5:-1 6:1 7:1 8:0 
-1 0:0 1:-1 2:-1 3:1 4:0 5:-1 6:1 7:1 8:0 
-1 0:1 1:0 2:1 3:1 4:1 5:0 6:0 7:1 8:0 
-1 0:0 1:-1 2:1 3:0 4:1 5:1 6:0 7:-1 8:-1 
-0.1112527503322727 0:0 1:1 2:-1 3:1 4:0 5:-1 6:1 7:-1 8:0 
-1 0:0 1:0 2:0 3:1 4:1 5:-1 6:0 7:1 8:1 
-1 0:0 1:1 2:1 3:1 4:0 5:0 6:1 7:-1 8:0 
-1 0:0 1:-1 2:1 3:0 4:-1 5:-1 6:0 7:1 8:1 
-1 0:0 1:0 2:0 3:1 4:-1 5:1 6:-1 7:-1 8:1 
-0.272231654238992 0:-1 1:1 2:0 3:1 4:0 5:0 6:0 7:1 8:1 
-1 0:1 1:1 2:-1 3:0 4:0 5:0 6:1 7:1 8:0 
-1 0:0 1:0 2:0 3:1 4:1 5:-1 6:1 7:0 8:1 
-1 0:0 1:0 2:0 3:1 4:0 5:1 6:-1 7:1 8:1 
-1 0:0 1:0 2:0 3:-1 4:1 5:1 6:-1 7:1 8:-1 
-1 0:-1 1:-1 2:0 3:1 4:0 5:1 6:0 7:-1 8:1 
-1 0:1 1:-1 2:0 3:-1 4:0 5:-1 6:0 7:1 8:1 
-1 0:1 1:0 2:1 3:-1 4:1 5:1 6:0 7:0 8:0 
-0.4270050078789169 0:1 1:1 2:0 3:1 4:0 5:0 6:-1 7:1 8:0 
-1 0:1 1:1 2:0 3:1 4:0 5:1 6:0 7:-1 8:0 
-1 0:1 1:0 2:1 3:1 4:0 5:1 6:0 7:1 8:0 
-1 0:0 1:0 2:0 3:1 4:-1 5:1 6:1 7:1 8:0 
-1 0:0 1:1 2:1 3:0 4:-1 5:0 6:0 7:1 8:1 
-1 0:1 1:0 2:1 3:1 4:1 5:-1 6:0 7:0 8:0 
-0.5942454315340228 0:0 1:1 2:1 3:0 4:-1 5:1 6:0 7:1 8:0 
-1 0:0 1:0 2:1 3:0 4:1 5:1 6:0 7:1 8:-1 
-1 0:1 1:-1 2:1 3:0 4:0 5:0 6:1 7:0 8:1 
-1 0:1 1:1 2:0 3:0 4:1 5:1 6:1 7:0 8:0 
-1 0:-1 1:1 2:0 3:-1 4:1 5:0 6:1 7:-1 8:0 
-1 0:1 1:0 2:-1 3:1 4:0 5:1 6:0 7:0 8:1 
-1 0:0 1:1 2:1 3:1 4:1 5:0 6:0 7:0 8:1 
-1 0:1 1:1 2:0 3:1 4:1 5:0 6:0 7:-1 8:0 
-0.7423670891401195 0:0 1:1 2:0 3:-1 4:0 5:1 6:1 7:1 8:0 
-1 0:1 1:-1 2:1 3:0 4:0 5:0 6:0 7:1 8:1 
-1 0:1 1:0 2:1 3:-1 4:0 5:-1 6:-1 7:0 8:1 
-1 0:0 1:0 2:0 3:-1 4:-1 5:1 6:-1 7:1 8:1 
-1 0:1 1:1 2:0 3:-1 4:0 5:0 6:1 7:1 8:0 
-1 0:0 1:1 2:1 3:0 4:1 5:-1 6:0 7:0 8:1 
-1 0:0 1:1 2:0 3:0 4:1 5:1 6:0 7:-1 8:1 
-1 0:0 1:1 2:1 3:0 4:-1 5:1 6:0 7:-1 8:-1 
-1 0:-1 1:1 2:1 3:0 4:1 5:1 6:0 7:0 8:0 
-1 0:0 1:1 2:1 3:0 4:0 5:0 6:-1 7:1 8:1 
-1 0:1 1:-1 2:1 3:0 4:0 5:0 6:-1 7:-1 8:1 
-0.9854887530249987 0:0 1:1 2:0 3:1 4:-1 5:0 6:1 7:1 8:0 
-1 0:1 1:1 2:0 3:-1 4:1 5:0 6:1 7:0 8:0 
-1 0:1 1:-1 2:-1 3:0 4:0 5:0 6:1 7:-1 8:1 
-0.3148510437605708 0:0 1:1 2:0 3:0 4:-1 5:1 6:0 7:1 8:1 
-1 0:1 1:0 2:1 3:0 4:0 5:0 6:1 7:1 8:-1 
-0.8371796213637136 0:-1 1:-1 2:0 3:1 4:0 5:-1 6:0 7:1 8:1 
-0.6520831788547075 0:1 1:0 2:-1 3:1 4:0 5:-1 6:-1 7:0 8:1 
-0.6149905475842182 0:1 1:1 2:0 3:-1 4:0 5:1 6:0 7:-1 8:-1 
-1 0:1 1:-1 2:1 3:1 4:0 5:1 6:0 7:0 8:0 
-0.9714110377909082 0:0 1:1 2:-1 3:0 4:0 5:1 6:1 7:1 8:0 
-1 0:0 1:0 2:1 3:1 4:1 5:0 6:0 7:1 8:1 
-0.6811437032295699 0:1 1:1 2:-1 3:1 4:0 5:1 6:0 7:0 8:0 
-1 0:-1 1:-1 2:1 3:0 4:0 5:0 6:1 7:-1 8:1 
-0.6644070526581722 0:1 1:0 2:-1 3:-1 4:0 5:1 6:-1 7:0 8:1 
-1 0:-1 1:-1 2:1 3:-1 4:1 5:1 6:0 7:0 8:0 
-1 0:1 1:-1 2:0 3:1 4:1 5:0 6:-1 7:-1 8:0 
-1 0:0 1:-1 2:-1 3:1 4:0 5:1 6:1 7:-1 8:0 
-0.9318094295511552 0:1 1:1 2:0 3:-1 4:-1 5:0 6:-1 7:1 8:0 
-0.801572124476703 0:0 1:1 2:1 3:1 4:-1 5:1 6:0 7:0 8:0 
-1 0:0 1:0 2:0 3:-1 4:1 5:1 6:1 7:-1 8:-1 
-1 0:0 1:-1 2:-1 3:0 4:1 5:1 6:0 7:-1 8:1 
-1 0:-1 1:0 2:1 3:-1 4:0 5:-1 6:1 7:0 8:1 
-1 0:-1 1:0 2:0 3:1 4:0 5:1 6:1 7:0 8:1 
-1 0:0 1:1 2:1 3:0 4:0 5:1 6:1 7:-1 8:0 
-1 0:-1 1:-1 2:0 3:-1 4:0 5:1 6:0 7:1 8:1 
-1 0:-1 1:-1 2:1 3:1 4:-1 5:1 6:0 7:0 8:0 
-1 0:-1 1:1 2:-1 3:0 4:0 5:0 6:-1 7:1 8:1 
-1 0:1 1:1 2:0 3:0 4:-1 5:0 6:1 7:1 8:0 
-1 0:1 1:1 2:-1 3:0 4:1 5:1 6:0 7:0 8:0 
-1 0:1 1:0 2:1 3:0 4:0 5:1 6:1 7:1 8:0 
-1 0:0 1:1 2:1 3:0 4:0 5:-1 6:1 7:1 8:0 
-1 0:1 1:0 2:1 3:0 4:1 5:1 6:0 7:1 8:0 
-1 0:1 1:1 2:0 3:1 4:1 5:0 6:-1 7:0 8:0 
-1 0:-1 1:-1 2:0 3:1 4:-1 5:0 6:1 7:1 8:0 
-1 0:-1 1:0 2:0 3:1 4:1 5:0 6:1 7:1 8:0 
-1 0:1 1:0 2:1 3:1 4:-1 5:1 6:0 7:0 8:0 
-1 0:0 1:0 2:1 3:1 4:0 5:1 6:1 7:-1 8:0 
