svm_type c_svc
kernel_type rbf
gamma 0.125
nr_class 2
total_sv 601
rho -3.31892
label 1 2
nr_sv 323 278
SV
0.4758859191882175 0:1 1:1 2:1 3:1 4:0 5:0 6:1 7:0 8:0 
1 0:1 1:1 2:1 3:1 4:0 5:0 6:0 7:1 8:0 
1 0:1 1:1 2:1 3:1 4:0 5:0 6:0 7:0 8:1 
1 0:1 1:1 2:1 3:1 4:0 5:0 6:-1 7:0 8:-1 
1 0:1 1:1 2:1 3:1 4:0 5:0 6:-1 7:-1 8:0 
0.6996688735102654 0:1 1:1 2:1 3:1 4:0 5:-1 6:0 7:0 8:-1 
1 0:1 1:1 2:1 3:1 4:0 5:-1 6:0 7:-1 8:0 
1 0:1 1:1 2:1 3:1 4:0 5:-1 6:-1 7:0 8:0 
1 0:1 1:1 2:1 3:1 4:-1 5:0 6:0 7:0 8:-1 
0.6099042809728965 0:1 1:1 2:1 3:1 4:-1 5:0 6:0 7:-1 8:0 
1 0:1 1:1 2:1 3:1 4:-1 5:0 6:-1 7:0 8:0 
1 0:1 1:1 2:1 3:0 4:0 5:1 6:1 7:0 8:0 
1 0:1 1:1 2:1 3:0 4:0 5:1 6:0 7:1 8:0 
0.4728829086108471 0:1 1:1 2:1 3:0 4:0 5:1 6:0 7:0 8:1 
1 0:1 1:1 2:1 3:0 4:0 5:1 6:0 7:-1 8:-1 
1 0:1 1:1 2:1 3:0 4:0 5:1 6:-1 7:0 8:-1 
1 0:1 1:1 2:1 3:0 4:0 5:-1 6:0 7:1 8:-1 
1 0:1 1:1 2:1 3:0 4:0 5:-1 6:0 7:-1 8:1 
1 0:1 1:1 2:1 3:0 4:0 5:-1 6:-1 7:1 8:0 
1 0:1 1:1 2:1 3:0 4:0 5:-1 6:-1 7:0 8:1 
0.0709820589569741 0:1 1:1 2:1 3:0 4:0 5:-1 6:-1 7:-1 8:-1 
1 0:1 1:1 2:1 3:0 4:-1 5:1 6:0 7:0 8:-1 
0.6143499716387476 0:1 1:1 2:1 3:0 4:-1 5:1 6:0 7:-1 8:0 
1 0:1 1:1 2:1 3:0 4:-1 5:1 6:-1 7:0 8:0 
1 0:1 1:1 2:1 3:0 4:-1 5:0 6:0 7:1 8:-1 
1 0:1 1:1 2:1 3:0 4:-1 5:0 6:-1 7:1 8:0 
1 0:1 1:1 2:1 3:0 4:-1 5:-1 6:0 7:1 8:0 
1 0:1 1:1 2:1 3:0 4:-1 5:-1 6:0 7:0 8:1 
1 0:1 1:1 2:1 3:-1 4:0 5:1 6:0 7:0 8:-1 
1 0:1 1:1 2:1 3:-1 4:0 5:1 6:0 7:-1 8:0 
0.7108638907578951 0:1 1:1 2:1 3:-1 4:0 5:1 6:-1 7:0 8:0 
1 0:1 1:1 2:1 3:-1 4:0 5:0 6:1 7:0 8:-1 
1 0:1 1:1 2:1 3:-1 4:0 5:0 6:1 7:-1 8:0 
1 0:1 1:1 2:1 3:-1 4:0 5:0 6:0 7:1 8:-1 
1 0:1 1:1 2:1 3:-1 4:0 5:0 6:-1 7:1 8:0 
0.05811663284931751 0:1 1:1 2:1 3:-1 4:0 5:0 6:-1 7:-1 8:-1 
0.2905426894971722 0:1 1:1 2:1 3:-1 4:0 5:-1 6:1 7:0 8:0 
1 0:1 1:1 2:1 3:-1 4:0 5:-1 6:0 7:1 8:0 
0.2770668176349369 0:1 1:1 2:1 3:-1 4:0 5:-1 6:0 7:0 8:1 
1 0:1 1:1 2:1 3:-1 4:-1 5:0 6:1 7:0 8:0 
1 0:1 1:1 2:1 3:-1 4:-1 5:0 6:0 7:1 8:0 
0.6636906482769541 0:1 1:1 2:1 3:-1 4:-1 5:-1 6:0 7:-1 8:0 
1 0:1 1:1 2:0 3:1 4:1 5:0 6:0 7:0 8:1 
1 0:1 1:1 2:0 3:1 4:0 5:1 6:1 7:0 8:0 
1 0:1 1:1 2:0 3:1 4:0 5:0 6:1 7:0 8:1 
0.7093446073328761 0:1 1:1 2:0 3:1 4:0 5:0 6:1 7:-1 8:-1 
1 0:1 1:1 2:0 3:1 4:0 5:-1 6:1 7:-1 8:0 
1 0:1 1:1 2:0 3:1 4:-1 5:0 6:1 7:0 8:-1 
0.6134947871840241 0:1 1:1 2:0 3:1 4:-1 5:-1 6:1 7:0 8:0 
1 0:1 1:1 2:0 3:0 4:1 5:1 6:0 7:1 8:0 
1 0:1 1:1 2:0 3:0 4:1 5:1 6:0 7:0 8:1 
0.4627104218844393 0:1 1:1 2:0 3:0 4:1 5:0 6:1 7:0 8:1 
0.005931330900837039 0:1 1:1 2:0 3:0 4:1 5:0 6:-1 7:-1 8:1 
1 0:1 1:1 2:0 3:0 4:1 5:-1 6:0 7:-1 8:1 
1 0:1 1:1 2:0 3:-1 4:1 5:0 6:0 7:1 8:-1 
1 0:1 1:1 2:0 3:-1 4:1 5:0 6:0 7:-1 8:1 
1 0:1 1:1 2:-1 3:1 4:0 5:0 6:1 7:0 8:-1 
1 0:1 1:1 2:-1 3:1 4:0 5:0 6:1 7:-1 8:0 
1 0:1 1:1 2:-1 3:1 4:0 5:-1 6:1 7:0 8:0 
1 0:1 1:1 2:-1 3:1 4:-1 5:0 6:1 7:0 8:0 
1 0:1 1:1 2:-1 3:0 4:1 5:0 6:0 7:1 8:-1 
1 0:1 1:1 2:-1 3:0 4:1 5:0 6:0 7:-1 8:1 
0.5394198164531233 0:1 1:1 2:-1 3:0 4:1 5:0 6:-1 7:0 8:1 
0.1513789365742209 0:1 1:1 2:-1 3:0 4:1 5:-1 6:0 7:0 8:1 
1 0:1 1:1 2:-1 3:-1 4:1 5:0 6:0 7:1 8:0 
1 0:1 1:1 2:-1 3:-1 4:1 5:0 6:0 7:0 8:1 
0.4773157815544618 0:1 1:0 2:1 3:1 4:1 5:0 6:0 7:0 8:1 
1 0:1 1:0 2:1 3:1 4:0 5:0 6:1 7:1 8:0 
0.4491833501737716 0:1 1:0 2:1 3:0 4:1 5:1 6:1 7:0 8:0 
0.4801319812097206 0:1 1:0 2:1 3:0 4:1 5:0 6:1 7:1 8:0 
0.4481444033827449 0:1 1:0 2:1 3:0 4:1 5:0 6:0 7:1 8:1 
0.5113148857189688 0:1 1:0 2:1 3:0 4:1 5:-1 6:-1 7:0 8:1 
1 0:1 1:0 2:1 3:0 4:0 5:1 6:0 7:1 8:1 
0.5037426470206313 0:1 1:0 2:1 3:-1 4:1 5:0 6:1 7:0 8:-1 
1 0:1 1:0 2:0 3:1 4:1 5:1 6:0 7:1 8:0 
1 0:1 1:0 2:0 3:1 4:1 5:1 6:-1 7:0 8:-1 
1 0:1 1:0 2:0 3:1 4:1 5:0 6:0 7:1 8:1 
0.1460836052673342 0:1 1:0 2:0 3:1 4:1 5:0 6:-1 7:-1 8:1 
1 0:1 1:0 2:0 3:1 4:1 5:-1 6:0 7:-1 8:1 
1 0:1 1:0 2:0 3:1 4:1 5:-1 6:-1 7:0 8:1 
1 0:1 1:0 2:0 3:1 4:0 5:1 6:1 7:1 8:0 
1 0:1 1:0 2:0 3:1 4:0 5:1 6:1 7:-1 8:-1 
0.4794353742208414 0:1 1:0 2:0 3:1 4:0 5:0 6:1 7:1 8:1 
1 0:1 1:0 2:0 3:1 4:0 5:-1 6:1 7:1 8:-1 
1 0:1 1:0 2:0 3:1 4:0 5:-1 6:1 7:-1 8:1 
1 0:1 1:0 2:0 3:1 4:-1 5:1 6:1 7:0 8:-1 
1 0:1 1:0 2:0 3:1 4:-1 5:1 6:1 7:-1 8:0 
1 0:1 1:0 2:0 3:1 4:-1 5:0 6:1 7:1 8:-1 
1 0:1 1:0 2:0 3:1 4:-1 5:0 6:1 7:-1 8:1 
0.6073693582935118 0:1 1:0 2:0 3:1 4:-1 5:-1 6:1 7:1 8:0 
0.4631183718528104 0:1 1:0 2:0 3:0 4:1 5:1 6:1 7:0 8:1 
1 0:1 1:0 2:0 3:0 4:1 5:1 6:0 7:1 8:1 
1 0:1 1:0 2:0 3:0 4:1 5:-1 6:-1 7:1 8:1 
1 0:1 1:0 2:0 3:0 4:0 5:1 6:1 7:1 8:1 
1 0:1 1:0 2:0 3:-1 4:1 5:1 6:0 7:-1 8:1 
0.01454110590892387 0:1 1:0 2:0 3:-1 4:1 5:1 6:-1 7:0 8:1 
1 0:1 1:0 2:0 3:-1 4:1 5:0 6:1 7:-1 8:1 
0.1625250446615201 0:1 1:0 2:0 3:-1 4:1 5:0 6:-1 7:1 8:1 
0.2749617969905244 0:1 1:0 2:0 3:-1 4:0 5:-1 6:1 7:1 8:1 
1 0:1 1:0 2:0 3:-1 4:-1 5:0 6:1 7:1 8:1 
0.5476500530252763 0:1 1:0 2:-1 3:1 4:1 5:0 6:-1 7:0 8:1 
0.002137014209831097 0:1 1:0 2:-1 3:1 4:1 5:-1 6:0 7:0 8:1 
1 0:1 1:0 2:-1 3:1 4:0 5:1 6:1 7:-1 8:0 
1 0:1 1:0 2:-1 3:1 4:0 5:0 6:1 7:1 8:-1 
1 0:1 1:0 2:-1 3:1 4:0 5:0 6:1 7:-1 8:1 
0.05851353583179045 0:1 1:0 2:-1 3:1 4:0 5:-1 6:1 7:-1 8:-1 
1 0:1 1:0 2:-1 3:1 4:-1 5:1 6:1 7:0 8:0 
1 0:1 1:0 2:-1 3:1 4:-1 5:0 6:1 7:1 8:0 
1 0:1 1:0 2:-1 3:0 4:1 5:1 6:0 7:-1 8:1 
0.5147445357567589 0:1 1:0 2:-1 3:0 4:1 5:1 6:-1 7:0 8:1 
0.5039029597127492 0:1 1:0 2:-1 3:0 4:1 5:0 6:1 7:-1 8:1 
0.5129978218244428 0:1 1:0 2:-1 3:0 4:1 5:0 6:-1 7:1 8:1 
1 0:1 1:0 2:-1 3:-1 4:1 5:1 6:0 7:0 8:1 
0.5048000889640015 0:1 1:0 2:-1 3:-1 4:1 5:0 6:1 7:0 8:1 
1 0:1 1:0 2:-1 3:-1 4:1 5:-1 6:0 7:-1 8:1 
1 0:1 1:0 2:-1 3:-1 4:0 5:0 6:1 7:1 8:1 
1 0:1 1:-1 2:1 3:1 4:0 5:0 6:1 7:0 8:-1 
0.2800792219677543 0:1 1:-1 2:1 3:1 4:0 5:0 6:1 7:-1 8:0 
1 0:1 1:-1 2:1 3:1 4:0 5:-1 6:1 7:0 8:0 
1 0:1 1:-1 2:1 3:1 4:-1 5:0 6:1 7:0 8:0 
0.50144618621383 0:1 1:-1 2:1 3:0 4:1 5:0 6:1 7:0 8:-1 
0.4957740141101666 0:1 1:-1 2:1 3:0 4:1 5:0 6:-1 7:0 8:1 
1 0:1 1:-1 2:1 3:0 4:1 5:-1 6:0 7:0 8:1 
0.2930759074077894 0:1 1:-1 2:1 3:0 4:0 5:1 6:0 7:-1 8:1 
1 0:1 1:-1 2:1 3:0 4:0 5:1 6:-1 7:0 8:1 
1 0:1 1:-1 2:1 3:0 4:-1 5:1 6:0 7:0 8:1 
1 0:1 1:-1 2:1 3:-1 4:1 5:0 6:1 7:0 8:0 
1 0:1 1:-1 2:1 3:-1 4:0 5:1 6:0 7:0 8:1 
1 0:1 1:-1 2:0 3:1 4:1 5:1 6:0 7:0 8:-1 
1 0:1 1:-1 2:0 3:1 4:1 5:1 6:-1 7:0 8:0 
1 0:1 1:-1 2:0 3:1 4:1 5:0 6:-1 7:0 8:1 
1 0:1 1:-1 2:0 3:1 4:1 5:-1 6:0 7:0 8:1 
1 0:1 1:-1 2:0 3:1 4:0 5:1 6:1 7:0 8:-1 
1 0:1 1:-1 2:0 3:1 4:0 5:1 6:1 7:-1 8:0 
1 0:1 1:-1 2:0 3:1 4:0 5:0 6:1 7:1 8:-1 
0.2870407669819429 0:1 1:-1 2:0 3:1 4:0 5:0 6:1 7:-1 8:1 
1 0:1 1:-1 2:0 3:1 4:0 5:-1 6:1 7:1 8:0 
1 0:1 1:-1 2:0 3:1 4:-1 5:1 6:1 7:0 8:0 
0.6633685726119806 0:1 1:-1 2:0 3:1 4:-1 5:-1 6:1 7:-1 8:0 
1 0:1 1:-1 2:0 3:0 4:1 5:0 6:-1 7:1 8:1 
1 0:1 1:-1 2:0 3:0 4:1 5:-1 6:0 7:1 8:1 
1 0:1 1:-1 2:0 3:0 4:1 5:-1 6:-1 7:-1 8:1 
1 0:1 1:-1 2:0 3:-1 4:1 5:1 6:0 7:0 8:1 
1 0:1 1:-1 2:0 3:-1 4:1 5:0 6:0 7:1 8:1 
1 0:1 1:-1 2:0 3:-1 4:1 5:-1 6:-1 7:0 8:1 
1 0:1 1:-1 2:0 3:-1 4:0 5:0 6:1 7:1 8:1 
1 0:1 1:-1 2:-1 3:1 4:0 5:1 6:1 7:0 8:0 
0.6981516513014895 0:1 1:-1 2:-1 3:1 4:0 5:0 6:1 7:1 8:0 
0.07093523548554277 0:1 1:-1 2:-1 3:1 4:0 5:-1 6:1 7:0 8:-1 
0.1549435812507134 0:1 1:-1 2:-1 3:0 4:1 5:1 6:0 7:0 8:1 
0.01825754189349896 0:1 1:-1 2:-1 3:0 4:1 5:0 6:0 7:1 8:1 
1 0:1 1:-1 2:-1 3:-1 4:1 5:0 6:0 7:-1 8:1 
1 0:0 1:1 2:1 3:1 4:1 5:0 6:1 7:0 8:0 
1 0:0 1:1 2:1 3:1 4:1 5:0 6:0 7:1 8:0 
1 0:0 1:1 2:1 3:1 4:0 5:1 6:0 7:0 8:1 
1 0:0 1:1 2:1 3:0 4:1 5:1 6:1 7:0 8:0 
0.4729049042624363 0:0 1:1 2:1 3:0 4:1 5:0 6:1 7:0 8:1 
1 0:0 1:1 2:1 3:0 4:1 5:-1 6:1 7:-1 8:0 
1 0:0 1:1 2:1 3:0 4:1 5:-1 6:-1 7:1 8:0 
1 0:0 1:1 2:1 3:0 4:0 5:1 6:1 7:0 8:1 
0.7085295770987927 0:0 1:1 2:1 3:0 4:0 5:1 6:-1 7:-1 8:1 
1 0:0 1:1 2:1 3:0 4:-1 5:1 6:-1 7:0 8:1 
1 0:0 1:1 2:1 3:-1 4:1 5:0 6:1 7:-1 8:0 
1 0:0 1:1 2:1 3:-1 4:0 5:1 6:0 7:-1 8:1 
0.6117615532678626 0:0 1:1 2:1 3:-1 4:-1 5:1 6:0 7:0 8:1 
1 0:0 1:1 2:0 3:1 4:1 5:1 6:1 7:0 8:0 
0.3940838887449081 0:0 1:1 2:0 3:1 4:1 5:1 6:0 7:1 8:0 
1 0:0 1:1 2:0 3:1 4:1 5:1 6:0 7:0 8:1 
1 0:0 1:1 2:0 3:1 4:1 5:1 6:0 7:-1 8:-1 
1 0:0 1:1 2:0 3:1 4:1 5:1 6:-1 7:-1 8:0 
1 0:0 1:1 2:0 3:1 4:1 5:0 6:0 7:1 8:1 
1 0:0 1:1 2:0 3:1 4:1 5:-1 6:0 7:1 8:-1 
1 0:0 1:1 2:0 3:1 4:1 5:-1 6:-1 7:1 8:0 
1 0:0 1:1 2:0 3:1 4:0 5:0 6:1 7:1 8:1 
1 0:0 1:1 2:0 3:0 4:1 5:1 6:1 7:1 8:0 
1 0:0 1:1 2:0 3:0 4:1 5:-1 6:-1 7:1 8:1 
1 0:0 1:1 2:0 3:0 4:0 5:1 6:1 7:1 8:1 
1 0:0 1:1 2:0 3:0 4:-1 5:-1 6:1 7:1 8:1 
1 0:0 1:1 2:0 3:-1 4:1 5:1 6:0 7:1 8:-1 
1 0:0 1:1 2:0 3:-1 4:1 5:1 6:-1 7:1 8:0 
1 0:0 1:1 2:0 3:-1 4:1 5:0 6:1 7:1 8:-1 
1 0:0 1:1 2:0 3:-1 4:0 5:-1 6:1 7:1 8:1 
1 0:0 1:1 2:0 3:-1 4:-1 5:0 6:1 7:1 8:1 
1 0:0 1:1 2:-1 3:1 4:1 5:1 6:0 7:-1 8:0 
0.7341408264937757 0:0 1:1 2:-1 3:1 4:1 5:1 6:-1 7:0 8:0 
0.7233479293491377 0:0 1:1 2:-1 3:1 4:1 5:0 6:-1 7:1 8:0 
1 0:0 1:1 2:-1 3:1 4:1 5:-1 6:0 7:1 8:0 
0.759192215740776 0:0 1:1 2:-1 3:0 4:1 5:1 6:-1 7:1 8:0 
1 0:0 1:1 2:-1 3:0 4:1 5:0 6:1 7:1 8:-1 
1 0:0 1:1 2:-1 3:0 4:0 5:-1 6:1 7:1 8:1 
1 0:0 1:1 2:-1 3:0 4:-1 5:0 6:1 7:1 8:1 
1 0:0 1:1 2:-1 3:-1 4:1 5:1 6:0 7:1 8:0 
1 0:0 1:1 2:-1 3:-1 4:1 5:0 6:1 7:1 8:0 
0.03956207007183201 0:0 1:1 2:-1 3:-1 4:1 5:0 6:-1 7:1 8:-1 
0.7608586868165172 0:0 1:1 2:-1 3:-1 4:1 5:-1 6:0 7:1 8:-1 
1 0:0 1:1 2:-1 3:-1 4:0 5:0 6:1 7:1 8:1 
1 0:0 1:0 2:1 3:1 4:1 5:1 6:0 7:1 8:0 
1 0:0 1:0 2:1 3:1 4:1 5:1 6:-1 7:0 8:-1 
1 0:0 1:0 2:1 3:1 4:1 5:0 6:1 7:1 8:0 
0.4434964300833934 0:0 1:0 2:1 3:1 4:1 5:0 6:1 7:0 8:1 
0.02694647969996933 0:0 1:0 2:1 3:1 4:1 5:-1 6:1 7:0 8:-1 
1 0:0 1:0 2:1 3:1 4:1 5:-1 6:1 7:-1 8:0 
1 0:0 1:0 2:1 3:1 4:0 5:1 6:0 7:1 8:1 
1 0:0 1:0 2:1 3:1 4:0 5:1 6:-1 7:-1 8:1 
1 0:0 1:0 2:1 3:1 4:0 5:0 6:1 7:1 8:1 
1 0:0 1:0 2:1 3:1 4:-1 5:1 6:0 7:-1 8:1 
1 0:0 1:0 2:1 3:1 4:-1 5:1 6:-1 7:0 8:1 
1 0:0 1:0 2:1 3:0 4:1 5:1 6:1 7:1 8:0 
0.1677317498672674 0:0 1:0 2:1 3:0 4:1 5:1 6:1 7:-1 8:-1 
0.1330506264513056 0:0 1:0 2:1 3:0 4:1 5:-1 6:1 7:1 8:-1 
1 0:0 1:0 2:1 3:0 4:1 5:-1 6:1 7:-1 8:1 
0.4881929692208916 0:0 1:0 2:1 3:0 4:0 5:1 6:1 7:1 8:1 
1 0:0 1:0 2:1 3:0 4:-1 5:1 6:1 7:-1 8:1 
1 0:0 1:0 2:1 3:0 4:-1 5:1 6:-1 7:1 8:1 
1 0:0 1:0 2:1 3:0 4:-1 5:-1 6:1 7:1 8:1 
1 0:0 1:0 2:1 3:-1 4:1 5:1 6:1 7:0 8:-1 
1 0:0 1:0 2:1 3:-1 4:1 5:1 6:1 7:-1 8:0 
1 0:0 1:0 2:1 3:-1 4:1 5:0 6:1 7:1 8:-1 
1 0:0 1:0 2:1 3:-1 4:0 5:1 6:1 7:-1 8:1 
1 0:0 1:0 2:1 3:-1 4:0 5:1 6:-1 7:1 8:1 
0.2894733499429259 0:0 1:0 2:1 3:-1 4:0 5:-1 6:1 7:1 8:1 
0.6031992029941695 0:0 1:0 2:1 3:-1 4:-1 5:1 6:0 7:1 8:1 
1 0:0 1:0 2:-1 3:1 4:1 5:1 6:1 7:-1 8:0 
1 0:0 1:0 2:-1 3:1 4:1 5:1 6:0 7:-1 8:1 
0.7526456220557738 0:0 1:0 2:-1 3:1 4:1 5:1 6:-1 7:1 8:0 
0.7146031629436503 0:0 1:0 2:-1 3:1 4:0 5:-1 6:1 7:1 8:1 
1 0:0 1:0 2:-1 3:1 4:-1 5:0 6:1 7:1 8:1 
1 0:0 1:0 2:-1 3:0 4:-1 5:1 6:1 7:1 8:1 
1 0:0 1:0 2:-1 3:-1 4:0 5:1 6:1 7:1 8:1 
1 0:0 1:-1 2:1 3:1 4:1 5:1 6:0 7:0 8:-1 
1 0:0 1:-1 2:1 3:1 4:1 5:1 6:-1 7:0 8:0 
1 0:0 1:-1 2:1 3:1 4:1 5:-1 6:1 7:0 8:0 
1 0:0 1:-1 2:1 3:1 4:0 5:1 6:0 7:-1 8:1 
1 0:0 1:-1 2:1 3:1 4:0 5:1 6:-1 7:0 8:1 
1 0:0 1:-1 2:1 3:1 4:-1 5:1 6:0 7:0 8:1 
1 0:0 1:-1 2:1 3:0 4:1 5:1 6:1 7:0 8:-1 
1 0:0 1:-1 2:1 3:0 4:1 5:0 6:1 7:1 8:-1 
1 0:0 1:-1 2:1 3:0 4:1 5:-1 6:1 7:1 8:0 
0.2736855308272513 0:0 1:-1 2:1 3:0 4:0 5:1 6:1 7:-1 8:1 
1 0:0 1:-1 2:1 3:0 4:0 5:1 6:-1 7:1 8:1 
1 0:0 1:-1 2:1 3:0 4:0 5:-1 6:1 7:1 8:1 
1 0:0 1:-1 2:1 3:-1 4:1 5:1 6:1 7:0 8:0 
1 0:0 1:-1 2:1 3:-1 4:1 5:0 6:1 7:1 8:0 
1 0:0 1:-1 2:1 3:-1 4:1 5:0 6:1 7:-1 8:-1 
1 0:0 1:-1 2:1 3:-1 4:1 5:-1 6:1 7:0 8:-1 
1 0:0 1:-1 2:1 3:-1 4:0 5:1 6:0 7:1 8:1 
0.6643692141144748 0:0 1:-1 2:1 3:-1 4:-1 5:1 6:0 7:-1 8:1 
1 0:0 1:-1 2:0 3:1 4:1 5:1 6:0 7:1 8:-1 
1 0:0 1:-1 2:0 3:1 4:1 5:1 6:-1 7:1 8:0 
0.7537309245722251 0:0 1:-1 2:0 3:1 4:1 5:1 6:-1 7:-1 8:-1 
1 0:0 1:-1 2:0 3:1 4:0 5:-1 6:1 7:1 8:1 
0.6109387617715516 0:0 1:-1 2:0 3:1 4:-1 5:0 6:1 7:1 8:1 
0.6077605659673037 0:0 1:-1 2:0 3:0 4:-1 5:1 6:1 7:1 8:1 
1 0:0 1:-1 2:0 3:-1 4:0 5:1 6:1 7:1 8:1 
0.6690443383716258 0:0 1:-1 2:0 3:-1 4:-1 5:-1 6:1 7:1 8:1 
1 0:0 1:-1 2:-1 3:1 4:1 5:1 6:0 7:1 8:0 
0.04358112746113561 0:0 1:-1 2:-1 3:1 4:1 5:1 6:-1 7:0 8:-1 
1 0:0 1:-1 2:-1 3:0 4:0 5:1 6:1 7:1 8:1 
0.5441886411444615 0:-1 1:1 2:1 3:0 4:1 5:0 6:1 7:0 8:-1 
1 0:-1 1:1 2:1 3:0 4:1 5:0 6:1 7:-1 8:0 
1 0:-1 1:1 2:1 3:0 4:1 5:0 6:-1 7:1 8:0 
1 0:-1 1:1 2:1 3:0 4:1 5:-1 6:1 7:0 8:0 
1 0:-1 1:1 2:1 3:0 4:1 5:-1 6:0 7:1 8:0 
1 0:-1 1:1 2:1 3:0 4:0 5:1 6:0 7:-1 8:1 
1 0:-1 1:1 2:1 3:0 4:0 5:1 6:-1 7:0 8:1 
1 0:-1 1:1 2:1 3:0 4:-1 5:1 6:0 7:0 8:1 
0.1393906120939602 0:-1 1:1 2:1 3:-1 4:1 5:0 6:1 7:0 8:0 
1 0:-1 1:1 2:1 3:-1 4:0 5:1 6:0 7:0 8:1 
0.7483389885532737 0:-1 1:1 2:0 3:1 4:1 5:1 6:0 7:0 8:-1 
1 0:-1 1:1 2:0 3:1 4:1 5:1 6:0 7:-1 8:0 
0.7510475404373851 0:-1 1:1 2:0 3:1 4:1 5:0 6:0 7:1 8:-1 
1 0:-1 1:1 2:0 3:1 4:1 5:-1 6:0 7:1 8:0 
0.7258554903204513 0:-1 1:1 2:0 3:0 4:1 5:1 6:0 7:1 8:-1 
1 0:-1 1:1 2:0 3:0 4:1 5:0 6:-1 7:1 8:1 
1 0:-1 1:1 2:0 3:0 4:1 5:-1 6:0 7:1 8:1 
0.04695154090034188 0:-1 1:1 2:0 3:0 4:1 5:-1 6:-1 7:1 8:-1 
1 0:-1 1:1 2:0 3:0 4:0 5:-1 6:1 7:1 8:1 
1 0:-1 1:1 2:0 3:0 4:-1 5:0 6:1 7:1 8:1 
1 0:-1 1:1 2:0 3:-1 4:1 5:1 6:0 7:1 8:0 
0.7536219542608763 0:-1 1:1 2:0 3:-1 4:1 5:-1 6:-1 7:1 8:0 
1 0:-1 1:1 2:0 3:-1 4:0 5:0 6:1 7:1 8:1 
0.05223645492980509 0:-1 1:1 2:-1 3:0 4:1 5:-1 6:-1 7:1 8:0 
0.0511887989343994 0:-1 1:1 2:-1 3:-1 4:1 5:0 6:0 7:1 8:-1 
0.5011834429904664 0:-1 1:0 2:1 3:1 4:1 5:0 6:1 7:0 8:-1 
1 0:-1 1:0 2:1 3:1 4:1 5:0 6:1 7:-1 8:0 
1 0:-1 1:0 2:1 3:1 4:1 5:-1 6:1 7:0 8:0 
1 0:-1 1:0 2:1 3:1 4:0 5:1 6:0 7:-1 8:1 
1 0:-1 1:0 2:1 3:1 4:-1 5:1 6:0 7:0 8:1 
0.5125347116338536 0:-1 1:0 2:1 3:0 4:1 5:1 6:1 7:0 8:-1 
0.5533572317387019 0:-1 1:0 2:1 3:0 4:1 5:0 6:1 7:1 8:-1 
0.5116841830649793 0:-1 1:0 2:1 3:0 4:1 5:0 6:1 7:-1 8:1 
0.499487240577246 0:-1 1:0 2:1 3:0 4:1 5:-1 6:1 7:0 8:1 
1 0:-1 1:0 2:1 3:0 4:0 5:1 6:1 7:-1 8:1 
1 0:-1 1:0 2:1 3:0 4:0 5:1 6:-1 7:1 8:1 
1 0:-1 1:0 2:1 3:0 4:0 5:-1 6:1 7:1 8:1 
1 0:-1 1:0 2:1 3:0 4:-1 5:1 6:0 7:1 8:1 
0.01725201050546443 0:-1 1:0 2:1 3:-1 4:1 5:1 6:1 7:0 8:0 
1 0:-1 1:0 2:1 3:-1 4:1 5:-1 6:1 7:-1 8:0 
0.05933928342043301 0:-1 1:0 2:1 3:-1 4:0 5:1 6:-1 7:-1 8:1 
1 0:-1 1:0 2:0 3:1 4:1 5:1 6:1 7:-1 8:0 
0.7314287955465143 0:-1 1:0 2:0 3:1 4:1 5:1 6:0 7:1 8:-1 
1 0:-1 1:0 2:0 3:1 4:1 5:1 6:0 7:-1 8:1 
1 0:-1 1:0 2:0 3:1 4:0 5:-1 6:1 7:1 8:1 
1 0:-1 1:0 2:0 3:1 4:-1 5:0 6:1 7:1 8:1 
1 0:-1 1:0 2:0 3:0 4:-1 5:1 6:1 7:1 8:1 
0.7081936639528712 0:-1 1:0 2:0 3:-1 4:0 5:1 6:1 7:1 8:1 
1 0:-1 1:0 2:-1 3:1 4:1 5:1 6:1 7:0 8:0 
1 0:-1 1:0 2:-1 3:1 4:1 5:1 6:0 7:0 8:1 
0.04677436389200635 0:-1 1:0 2:-1 3:1 4:1 5:1 6:0 7:-1 8:-1 
0.04960072442852446 0:-1 1:0 2:-1 3:1 4:1 5:1 6:-1 7:-1 8:0 
1 0:-1 1:0 2:-1 3:1 4:0 5:0 6:1 7:1 8:1 
1 0:-1 1:0 2:-1 3:0 4:0 5:1 6:1 7:1 8:1 
0.171546115884042 0:-1 1:-1 2:1 3:1 4:1 5:0 6:1 7:0 8:0 
1 0:-1 1:-1 2:1 3:1 4:0 5:1 6:0 7:0 8:1 
1 0:-1 1:-1 2:1 3:0 4:1 5:-1 6:1 7:-1 8:0 
0.7048760015931962 0:-1 1:-1 2:1 3:0 4:0 5:1 6:0 7:1 8:1 
0.06775001475935648 0:-1 1:-1 2:1 3:-1 4:0 5:1 6:-1 7:0 8:1 
1 0:-1 1:-1 2:0 3:1 4:1 5:1 6:0 7:1 8:0 
0.05290661484464464 0:-1 1:-1 2:0 3:1 4:1 5:1 6:-1 7:0 8:-1 
1 0:-1 1:-1 2:0 3:1 4:0 5:0 6:1 7:1 8:1 
0.7552235884819568 0:-1 1:-1 2:-1 3:1 4:1 5:1 6:0 7:-1 8:0 
0.05994612481983682 0:-1 1:-1 2:-1 3:0 4:0 5:-1 6:1 7:1 8:1 
0.06340357422795326 0:-1 1:-1 2:-1 3:-1 4:0 5:0 6:1 7:1 8:1 
-1 0:1 1:1 2:0 3:1 4:1 5:0 6:0 7:-1 8:0 
-1 0:1 1:1 2:0 3:1 4:1 5:0 6:-1 7:0 8:0 
-1 0:1 1:1 2:0 3:1 4:1 5:-1 6:0 7:0 8:0 
-1 0:1 1:1 2:0 3:1 4:0 5:1 6:0 7:0 8:-1 
-1 0:1 1:1 2:0 3:1 4:0 5:1 6:0 7:-1 8:0 
-1 0:1 1:1 2:0 3:1 4:0 5:0 6:0 7:1 8:-1 
-1 0:1 1:1 2:0 3:1 4:0 5:0 6:0 7:-1 8:1 
-0.4536230714538655 0:1 1:1 2:0 3:1 4:0 5:0 6:-1 7:1 8:0 
-1 0:1 1:1 2:0 3:1 4:0 5:-1 6:0 7:1 8:0 
-1 0:1 1:1 2:0 3:1 4:0 5:-1 6:0 7:0 8:1 
-1 0:1 1:1 2:0 3:1 4:0 5:-1 6:0 7:-1 8:-1 
-0.6893374845950616 0:1 1:1 2:0 3:1 4:-1 5:1 6:0 7:0 8:0 
-0.6675416572362211 0:1 1:1 2:0 3:1 4:-1 5:0 6:0 7:1 8:0 
-1 0:1 1:1 2:0 3:1 4:-1 5:0 6:-1 7:-1 8:0 
-1 0:1 1:1 2:0 3:0 4:1 5:0 6:1 7:-1 8:0 
-0.4775601677344378 0:1 1:1 2:0 3:0 4:0 5:1 6:0 7:1 8:-1 
-1 0:1 1:1 2:0 3:0 4:0 5:1 6:0 7:-1 8:1 
-1 0:1 1:1 2:0 3:0 4:0 5:0 6:1 7:1 8:-1 
-1 0:1 1:1 2:0 3:0 4:0 5:0 6:1 7:-1 8:1 
-1 0:1 1:1 2:0 3:0 4:0 5:0 6:-1 7:1 8:1 
-1 0:1 1:1 2:0 3:0 4:0 5:-1 6:0 7:1 8:1 
-1 0:1 1:1 2:0 3:0 4:-1 5:0 6:1 7:1 8:0 
-1 0:1 1:1 2:0 3:-1 4:1 5:1 6:0 7:0 8:0 
-1 0:1 1:1 2:0 3:-1 4:1 5:0 6:1 7:0 8:0 
-1 0:1 1:1 2:0 3:-1 4:1 5:0 6:-1 7:-1 8:0 
-1 0:1 1:1 2:0 3:-1 4:0 5:1 6:0 7:0 8:1 
-1 0:1 1:1 2:0 3:-1 4:0 5:0 6:1 7:1 8:0 
-1 0:1 1:1 2:0 3:-1 4:0 5:0 6:0 7:1 8:1 
-1 0:1 1:1 2:0 3:-1 4:0 5:-1 6:0 7:1 8:-1 
-1 0:1 1:1 2:0 3:-1 4:0 5:-1 6:0 7:-1 8:1 
-1 0:1 1:1 2:0 3:-1 4:-1 5:0 6:1 7:-1 8:0 
-1 0:1 1:1 2:0 3:-1 4:-1 5:0 6:-1 7:1 8:0 
-1 0:1 1:1 2:-1 3:1 4:1 5:0 6:0 7:0 8:0 
-0.4551175065380956 0:1 1:1 2:-1 3:1 4:0 5:1 6:0 7:0 8:0 
-1 0:1 1:1 2:-1 3:1 4:-1 5:-1 6:0 7:0 8:0 
-1 0:1 1:1 2:-1 3:0 4:1 5:1 6:0 7:0 8:0 
-1 0:1 1:1 2:-1 3:0 4:0 5:0 6:1 7:1 8:0 
-1 0:1 1:1 2:-1 3:0 4:0 5:0 6:1 7:0 8:1 
-1 0:1 1:1 2:-1 3:0 4:0 5:0 6:1 7:-1 8:-1 
-1 0:1 1:1 2:-1 3:0 4:0 5:0 6:0 7:1 8:1 
-1 0:1 1:1 2:-1 3:0 4:0 5:0 6:-1 7:1 8:-1 
-1 0:1 1:1 2:-1 3:-1 4:1 5:-1 6:0 7:0 8:0 
-1 0:1 1:0 2:1 3:1 4:1 5:-1 6:0 7:0 8:0 
-1 0:1 1:0 2:1 3:1 4:0 5:1 6:0 7:0 8:-1 
-1 0:1 1:0 2:1 3:1 4:0 5:1 6:-1 7:0 8:0 
-1 0:1 1:0 2:1 3:1 4:0 5:0 6:-1 7:0 8:1 
-1 0:1 1:0 2:1 3:1 4:0 5:-1 6:0 7:0 8:1 
-1 0:1 1:0 2:1 3:1 4:0 5:-1 6:-1 7:0 8:-1 
-1 0:1 1:0 2:1 3:1 4:-1 5:1 6:0 7:0 8:0 
-1 0:1 1:0 2:1 3:0 4:0 5:1 6:1 7:0 8:-1 
-1 0:1 1:0 2:1 3:0 4:0 5:0 6:1 7:1 8:-1 
-1 0:1 1:0 2:1 3:0 4:0 5:0 6:1 7:-1 8:1 
-1 0:1 1:0 2:1 3:0 4:0 5:0 6:-1 7:1 8:1 
-1 0:1 1:0 2:1 3:0 4:0 5:-1 6:1 7:0 8:1 
-1 0:1 1:0 2:1 3:-1 4:1 5:1 6:0 7:0 8:0 
-1 0:1 1:0 2:1 3:-1 4:0 5:1 6:1 7:0 8:0 
-1 0:1 1:0 2:1 3:-1 4:0 5:1 6:-1 7:0 8:-1 
-1 0:1 1:0 2:1 3:-1 4:0 5:0 6:1 7:0 8:1 
-1 0:1 1:0 2:1 3:-1 4:0 5:-1 6:1 7:0 8:-1 
-1 0:1 1:0 2:1 3:-1 4:0 5:-1 6:-1 7:0 8:1 
-1 0:1 1:0 2:0 3:1 4:1 5:0 6:-1 7:1 8:0 
-0.4738001551930079 0:1 1:0 2:0 3:1 4:0 5:1 6:0 7:1 8:-1 
-1 0:1 1:0 2:0 3:1 4:0 5:1 6:0 7:-1 8:1 
-1 0:1 1:0 2:0 3:1 4:0 5:1 6:-1 7:0 8:1 
-1 0:1 1:0 2:0 3:1 4:0 5:-1 6:0 7:1 8:1 
-1 0:1 1:0 2:0 3:-1 4:1 5:0 6:1 7:1 8:0 
-1 0:1 1:0 2:0 3:-1 4:0 5:1 6:1 7:0 8:1 
-1 0:1 1:0 2:0 3:-1 4:0 5:1 6:0 7:1 8:1 
-1 0:1 1:0 2:-1 3:1 4:0 5:1 6:0 7:0 8:1 
-1 0:1 1:0 2:-1 3:1 4:0 5:1 6:-1 7:0 8:-1 
-0.002928827805502397 0:1 1:0 2:-1 3:1 4:0 5:-1 6:-1 7:0 8:1 
-1 0:1 1:0 2:-1 3:0 4:0 5:1 6:1 7:0 8:1 
-1 0:1 1:0 2:-1 3:-1 4:0 5:-1 6:1 7:0 8:1 
-1 0:1 1:-1 2:1 3:1 4:1 5:0 6:0 7:0 8:0 
-1 0:1 1:-1 2:1 3:1 4:0 5:1 6:0 7:0 8:0 
-1 0:1 1:-1 2:1 3:1 4:-1 5:-1 6:0 7:0 8:0 
-1 0:1 1:-1 2:1 3:0 4:1 5:1 6:0 7:0 8:0 
-1 0:1 1:-1 2:1 3:0 4:0 5:0 6:1 7:1 8:0 
-1 0:1 1:-1 2:1 3:0 4:0 5:0 6:1 7:0 8:1 
-1 0:1 1:-1 2:1 3:0 4:0 5:0 6:1 7:-1 8:-1 
-1 0:1 1:-1 2:1 3:0 4:0 5:0 6:0 7:1 8:1 
-1 0:1 1:-1 2:1 3:0 4:0 5:0 6:-1 7:-1 8:1 
-1 0:1 1:-1 2:1 3:-1 4:1 5:-1 6:0 7:0 8:0 
-1 0:1 1:-1 2:1 3:-1 4:-1 5:1 6:0 7:0 8:0 
-1 0:1 1:-1 2:0 3:1 4:1 5:0 6:0 7:1 8:0 
-1 0:1 1:-1 2:0 3:1 4:1 5:0 6:-1 7:-1 8:0 
-1 0:1 1:-1 2:0 3:1 4:0 5:1 6:0 7:0 8:1 
-1 0:1 1:-1 2:0 3:1 4:0 5:1 6:0 7:-1 8:-1 
-1 0:1 1:-1 2:0 3:1 4:0 5:0 6:0 7:1 8:1 
-1 0:1 1:-1 2:0 3:1 4:0 5:-1 6:0 7:-1 8:1 
-1 0:1 1:-1 2:0 3:0 4:1 5:0 6:1 7:1 8:0 
-1 0:1 1:-1 2:0 3:0 4:0 5:1 6:0 7:1 8:1 
-1 0:1 1:-1 2:0 3:-1 4:1 5:0 6:1 7:-1 8:0 
-1 0:1 1:-1 2:0 3:-1 4:1 5:0 6:-1 7:1 8:0 
-1 0:1 1:-1 2:0 3:-1 4:0 5:1 6:0 7:-1 8:1 
-1 0:1 1:-1 2:0 3:-1 4:0 5:-1 6:0 7:1 8:1 
-1 0:1 1:-1 2:0 3:-1 4:-1 5:0 6:1 7:1 8:0 
-1 0:1 1:-1 2:-1 3:1 4:1 5:-1 6:0 7:0 8:0 
-1 0:1 1:-1 2:-1 3:1 4:-1 5:1 6:0 7:0 8:0 
-1 0:1 1:-1 2:-1 3:0 4:0 5:0 6:1 7:1 8:-1 
-1 0:1 1:-1 2:-1 3:0 4:0 5:0 6:1 7:-1 8:1 
-1 0:1 1:-1 2:-1 3:-1 4:1 5:1 6:0 7:0 8:0 
-1 0:0 1:1 2:1 3:1 4:1 5:-1 6:0 7:0 8:0 
-1 0:0 1:1 2:1 3:1 4:0 5:1 6:0 7:-1 8:0 
-1 0:0 1:1 2:1 3:1 4:0 5:1 6:-1 7:0 8:0 
-1 0:0 1:1 2:1 3:1 4:0 5:0 6:1 7:-1 8:0 
-0.4802013816076922 0:0 1:1 2:1 3:1 4:0 5:0 6:-1 7:1 8:0 
-1 0:0 1:1 2:1 3:1 4:0 5:-1 6:1 7:0 8:0 
-0.674847696272906 0:0 1:1 2:1 3:1 4:-1 5:1 6:0 7:0 8:0 
-1 0:0 1:1 2:1 3:0 4:1 5:1 6:0 7:0 8:-1 
-1 0:0 1:1 2:1 3:0 4:1 5:1 6:0 7:-1 8:0 
-1 0:0 1:1 2:1 3:0 4:1 5:0 6:0 7:-1 8:1 
-1 0:0 1:1 2:1 3:0 4:1 5:-1 6:0 7:0 8:1 
-1 0:0 1:1 2:1 3:0 4:1 5:-1 6:0 7:-1 8:-1 
-1 0:0 1:1 2:1 3:0 4:0 5:1 6:1 7:-1 8:0 
-0.4512650740442762 0:0 1:1 2:1 3:0 4:0 5:1 6:0 7:1 8:-1 
-1 0:0 1:1 2:1 3:0 4:0 5:1 6:-1 7:1 8:0 
-1 0:0 1:1 2:1 3:0 4:0 5:0 6:1 7:1 8:-1 
-1 0:0 1:1 2:1 3:0 4:0 5:0 6:1 7:-1 8:1 
-1 0:0 1:1 2:1 3:0 4:0 5:0 6:-1 7:1 8:1 
-1 0:0 1:1 2:1 3:0 4:0 5:-1 6:1 7:1 8:0 
-1 0:0 1:1 2:1 3:0 4:0 5:-1 6:0 7:1 8:1 
-0.6893586298097403 0:0 1:1 2:1 3:0 4:-1 5:1 6:0 7:1 8:0 
-1 0:0 1:1 2:1 3:0 4:-1 5:1 6:0 7:-1 8:-1 
-1 0:0 1:1 2:1 3:0 4:-1 5:0 6:0 7:1 8:1 
-1 0:0 1:1 2:1 3:0 4:-1 5:-1 6:0 7:1 8:-1 
-1 0:0 1:1 2:1 3:0 4:-1 5:-1 6:0 7:-1 8:1 
-1 0:0 1:1 2:1 3:-1 4:1 5:1 6:0 7:0 8:0 
-1 0:0 1:1 2:1 3:-1 4:0 5:1 6:1 7:0 8:0 
-1 0:0 1:1 2:1 3:-1 4:0 5:1 6:0 7:1 8:0 
-1 0:0 1:1 2:1 3:-1 4:0 5:1 6:-1 7:-1 8:0 
-1 0:0 1:1 2:1 3:-1 4:0 5:0 6:1 7:1 8:0 
-1 0:0 1:1 2:1 3:-1 4:0 5:-1 6:1 7:-1 8:0 
-1 0:0 1:1 2:1 3:-1 4:0 5:-1 6:-1 7:1 8:0 
-1 0:0 1:1 2:0 3:1 4:1 5:0 6:1 7:-1 8:0 
-1 0:0 1:1 2:0 3:1 4:0 5:-1 6:1 7:1 8:0 
-0.6863716275685329 0:0 1:1 2:0 3:1 4:-1 5:0 6:1 7:1 8:0 
-1 0:0 1:1 2:0 3:0 4:1 5:1 6:0 7:-1 8:1 
-0.6617156056973769 0:0 1:1 2:0 3:0 4:-1 5:1 6:0 7:1 8:1 
-1 0:0 1:1 2:0 3:-1 4:0 5:1 6:0 7:1 8:1 
-0.4664889247736522 0:0 1:1 2:-1 3:1 4:0 5:1 6:1 7:0 8:0 
-1 0:0 1:1 2:-1 3:1 4:0 5:0 6:1 7:1 8:0 
-1 0:0 1:1 2:-1 3:0 4:1 5:1 6:0 7:0 8:1 
-1 0:0 1:1 2:-1 3:0 4:1 5:1 6:0 7:-1 8:-1 
-1 0:0 1:1 2:-1 3:0 4:1 5:-1 6:0 7:-1 8:1 
-0.4685112538088611 0:0 1:1 2:-1 3:0 4:0 5:1 6:1 7:1 8:0 
-0.4764061673231562 0:0 1:1 2:-1 3:0 4:0 5:1 6:0 7:1 8:1 
-1 0:0 1:1 2:-1 3:0 4:-1 5:-1 6:0 7:1 8:1 
-1 0:0 1:1 2:-1 3:-1 4:0 5:-1 6:1 7:1 8:0 
-1 0:0 1:0 2:1 3:1 4:0 5:1 6:1 7:0 8:-1 
-1 0:0 1:0 2:1 3:1 4:0 5:1 6:1 7:-1 8:0 
-0.4633343999723593 0:0 1:0 2:1 3:1 4:0 5:1 6:-1 7:1 8:0 
-1 0:0 1:0 2:1 3:1 4:0 5:-1 6:1 7:1 8:0 
-1 0:0 1:0 2:1 3:1 4:0 5:-1 6:1 7:0 8:1 
-1 0:0 1:0 2:1 3:0 4:1 5:1 6:0 7:1 8:-1 
-1 0:0 1:0 2:1 3:0 4:1 5:-1 6:0 7:1 8:1 
-1 0:0 1:0 2:1 3:-1 4:0 5:1 6:1 7:1 8:0 
-1 0:0 1:0 2:0 3:1 4:1 5:0 6:1 7:1 8:-1 
-1 0:0 1:0 2:0 3:1 4:1 5:0 6:1 7:-1 8:1 
-1 0:0 1:0 2:0 3:1 4:1 5:0 6:-1 7:1 8:1 
-1 0:0 1:0 2:0 3:1 4:1 5:-1 6:1 7:1 8:0 
-1 0:0 1:0 2:0 3:1 4:1 5:-1 6:1 7:0 8:1 
-1 0:0 1:0 2:0 3:1 4:1 5:-1 6:1 7:-1 8:-1 
-1 0:0 1:0 2:0 3:1 4:1 5:-1 6:0 7:1 8:1 
-1 0:0 1:0 2:0 3:1 4:1 5:-1 6:-1 7:1 8:-1 
-1 0:0 1:0 2:0 3:1 4:1 5:-1 6:-1 7:-1 8:1 
-0.4518412553103778 0:0 1:0 2:0 3:1 4:0 5:1 6:1 7:1 8:-1 
-1 0:0 1:0 2:0 3:1 4:0 5:1 6:1 7:-1 8:1 
-0.4712893420363158 0:0 1:0 2:0 3:1 4:0 5:1 6:-1 7:1 8:1 
-0.6773452806211939 0:0 1:0 2:0 3:1 4:-1 5:1 6:1 7:1 8:0 
-1 0:0 1:0 2:0 3:1 4:-1 5:1 6:1 7:0 8:1 
-1 0:0 1:0 2:0 3:1 4:-1 5:1 6:1 7:-1 8:-1 
-0.6746750552497006 0:0 1:0 2:0 3:1 4:-1 5:1 6:0 7:1 8:1 
-1 0:0 1:0 2:0 3:1 4:-1 5:1 6:-1 7:-1 8:1 
-1 0:0 1:0 2:0 3:1 4:-1 5:-1 6:1 7:1 8:-1 
-1 0:0 1:0 2:0 3:1 4:-1 5:-1 6:1 7:-1 8:1 
-1 0:0 1:0 2:0 3:0 4:1 5:1 6:1 7:1 8:-1 
-1 0:0 1:0 2:0 3:0 4:1 5:1 6:1 7:-1 8:1 
-1 0:0 1:0 2:0 3:0 4:1 5:1 6:-1 7:1 8:1 
-1 0:0 1:0 2:0 3:-1 4:1 5:1 6:1 7:1 8:0 
-1 0:0 1:0 2:0 3:-1 4:1 5:1 6:1 7:0 8:1 
-1 0:0 1:0 2:0 3:-1 4:1 5:1 6:1 7:-1 8:-1 
-1 0:0 1:0 2:0 3:-1 4:1 5:1 6:0 7:1 8:1 
-1 0:0 1:0 2:0 3:-1 4:1 5:1 6:-1 7:1 8:-1 
-1 0:0 1:0 2:0 3:-1 4:1 5:1 6:-1 7:-1 8:1 
-1 0:0 1:0 2:0 3:-1 4:1 5:-1 6:1 7:1 8:-1 
-1 0:0 1:0 2:0 3:-1 4:1 5:-1 6:1 7:-1 8:1 
-1 0:0 1:0 2:0 3:-1 4:1 5:-1 6:-1 7:1 8:1 
-1 0:0 1:0 2:0 3:-1 4:-1 5:1 6:1 7:-1 8:1 
-1 0:0 1:0 2:0 3:-1 4:-1 5:1 6:-1 7:1 8:1 
-1 0:0 1:0 2:-1 3:1 4:0 5:1 6:1 7:1 8:0 
-1 0:0 1:0 2:-1 3:1 4:0 5:1 6:1 7:0 8:1 
-1 0:0 1:0 2:-1 3:0 4:1 5:1 6:0 7:1 8:1 
-1 0:0 1:-1 2:1 3:1 4:0 5:1 6:1 7:0 8:0 
-1 0:0 1:-1 2:1 3:1 4:0 5:1 6:-1 7:-1 8:0 
-1 0:0 1:-1 2:1 3:1 4:0 5:0 6:1 7:1 8:0 
-1 0:0 1:-1 2:1 3:1 4:0 5:-1 6:1 7:-1 8:0 
-1 0:0 1:-1 2:1 3:0 4:1 5:1 6:0 7:1 8:0 
-1 0:0 1:-1 2:1 3:0 4:1 5:1 6:0 7:-1 8:-1 
-1 0:0 1:-1 2:1 3:0 4:1 5:0 6:0 7:1 8:1 
-1 0:0 1:-1 2:1 3:0 4:1 5:-1 6:0 7:1 8:-1 
-1 0:0 1:-1 2:1 3:0 4:1 5:-1 6:0 7:-1 8:1 
-1 0:0 1:-1 2:1 3:0 4:0 5:1 6:1 7:1 8:0 
-1 0:0 1:-1 2:1 3:0 4:-1 5:-1 6:0 7:1 8:1 
-1 0:0 1:-1 2:1 3:-1 4:0 5:1 6:1 7:-1 8:0 
-1 0:0 1:-1 2:1 3:-1 4:0 5:-1 6:1 7:1 8:0 
-1 0:0 1:-1 2:0 3:1 4:1 5:0 6:1 7:1 8:0 
-1 0:0 1:-1 2:0 3:1 4:0 5:1 6:1 7:1 8:0 
-1 0:0 1:-1 2:0 3:1 4:0 5:1 6:0 7:1 8:1 
-1 0:0 1:-1 2:0 3:0 4:1 5:1 6:0 7:1 8:1 
-1 0:0 1:-1 2:-1 3:1 4:0 5:1 6:1 7:-1 8:0 
-1 0:0 1:-1 2:-1 3:1 4:0 5:-1 6:1 7:1 8:0 
-1 0:0 1:-1 2:-1 3:0 4:1 5:1 6:0 7:1 8:-1 
-1 0:0 1:-1 2:-1 3:0 4:1 5:1 6:0 7:-1 8:1 
-1 0:0 1:-1 2:-1 3:0 4:1 5:-1 6:0 7:1 8:1 
-1 0:0 1:-1 2:-1 3:0 4:-1 5:1 6:0 7:1 8:1 
-1 0:-1 1:1 2:1 3:1 4:1 5:0 6:0 7:0 8:0 
-0.4560121200361654 0:-1 1:1 2:1 3:1 4:0 5:1 6:0 7:0 8:0 
-1 0:-1 1:1 2:1 3:0 4:1 5:1 6:0 7:0 8:0 
-1 0:-1 1:1 2:1 3:0 4:0 5:0 6:1 7:1 8:0 
-1 0:-1 1:1 2:1 3:0 4:0 5:0 6:1 7:0 8:1 
-1 0:-1 1:1 2:1 3:0 4:0 5:0 6:0 7:1 8:1 
-1 0:-1 1:1 2:1 3:0 4:0 5:0 6:-1 7:1 8:-1 
-1 0:-1 1:1 2:1 3:0 4:0 5:0 6:-1 7:-1 8:1 
-1 0:-1 1:1 2:1 3:-1 4:1 5:-1 6:0 7:0 8:0 
-1 0:-1 1:1 2:1 3:-1 4:-1 5:1 6:0 7:0 8:0 
-1 0:-1 1:1 2:0 3:1 4:1 5:0 6:1 7:0 8:0 
-1 0:-1 1:1 2:0 3:1 4:1 5:0 6:-1 7:-1 8:0 
-0.4763877118651284 0:-1 1:1 2:0 3:1 4:0 5:1 6:0 7:0 8:1 
-0.471170493829677 0:-1 1:1 2:0 3:1 4:0 5:0 6:1 7:1 8:0 
-0.4605707888178463 0:-1 1:1 2:0 3:1 4:0 5:0 6:0 7:1 8:1 
-1 0:-1 1:1 2:0 3:0 4:0 5:1 6:0 7:1 8:1 
-1 0:-1 1:1 2:0 3:-1 4:1 5:0 6:1 7:-1 8:0 
-1 0:-1 1:1 2:0 3:-1 4:0 5:-1 6:0 7:1 8:1 
-1 0:-1 1:1 2:0 3:-1 4:-1 5:0 6:1 7:1 8:0 
-1 0:-1 1:1 2:-1 3:1 4:1 5:-1 6:0 7:0 8:0 
-1 0:-1 1:1 2:-1 3:0 4:0 5:0 6:1 7:1 8:-1 
-1 0:-1 1:1 2:-1 3:0 4:0 5:0 6:-1 7:1 8:1 
-1 0:-1 1:1 2:-1 3:-1 4:1 5:1 6:0 7:0 8:0 
-1 0:-1 1:0 2:1 3:1 4:0 5:1 6:1 7:0 8:0 
-1 0:-1 1:0 2:1 3:1 4:0 5:1 6:-1 7:0 8:-1 
-1 0:-1 1:0 2:1 3:1 4:0 5:0 6:1 7:0 8:1 
-1 0:-1 1:0 2:1 3:-1 4:0 5:-1 6:1 7:0 8:1 
-1 0:-1 1:0 2:0 3:1 4:1 5:0 6:1 7:1 8:0 
-1 0:-1 1:0 2:0 3:1 4:0 5:1 6:1 7:0 8:1 
-1 0:-1 1:0 2:0 3:1 4:0 5:1 6:0 7:1 8:1 
-1 0:-1 1:0 2:-1 3:1 4:0 5:1 6:1 7:0 8:-1 
-1 0:-1 1:0 2:-1 3:1 4:0 5:1 6:-1 7:0 8:1 
-1 0:-1 1:0 2:-1 3:1 4:0 5:-1 6:1 7:0 8:1 
-1 0:-1 1:0 2:-1 3:-1 4:0 5:1 6:1 7:0 8:1 
-1 0:-1 1:-1 2:1 3:1 4:1 5:-1 6:0 7:0 8:0 
-1 0:-1 1:-1 2:1 3:1 4:-1 5:1 6:0 7:0 8:0 
-0.0003587239558741273 0:-1 1:-1 2:1 3:0 4:0 5:0 6:1 7:1 8:-1 
-1 0:-1 1:-1 2:1 3:0 4:0 5:0 6:1 7:-1 8:1 
-1 0:-1 1:-1 2:1 3:0 4:0 5:0 6:-1 7:1 8:1 
-1 0:-1 1:-1 2:1 3:-1 4:1 5:1 6:0 7:0 8:0 
-1 0:-1 1:-1 2:0 3:1 4:1 5:0 6:1 7:-1 8:0 
-1 0:-1 1:-1 2:0 3:1 4:1 5:0 6:-1 7:1 8:0 
-1 0:-1 1:-1 2:0 3:1 4:0 5:1 6:0 7:-1 8:1 
-1 0:-1 1:-1 2:0 3:1 4:-1 5:0 6:1 7:1 8:0 
-1 0:-1 1:-1 2:0 3:-1 4:1 5:0 6:1 7:1 8:0 
-1 0:-1 1:-1 2:0 3:-1 4:0 5:1 6:0 7:1 8:1 
-1 0:1 1:1 2:0 3:0 4:1 5:1 6:1 7:0 8:0 
-1 0:1 1:1 2:0 3:0 4:0 5:1 6:1 7:1 8:0 
-1 0:1 1:1 2:0 3:0 4:0 5:1 6:1 7:0 8:1 
-1 0:1 1:0 2:1 3:1 4:1 5:0 6:0 7:1 8:0 
-1 0:1 1:0 2:1 3:1 4:0 5:1 6:0 7:1 8:0 
-1 0:1 1:0 2:1 3:1 4:0 5:0 6:0 7:1 8:1 
-1 0:1 1:0 2:1 3:0 4:1 5:1 6:0 7:1 8:0 
-1 0:1 1:0 2:1 3:0 4:0 5:1 6:1 7:1 8:0 
-1 0:1 1:0 2:0 3:0 4:1 5:1 6:1 7:1 8:0 
-1 0:0 1:1 2:1 3:1 4:1 5:0 6:0 7:0 8:1 
-1 0:0 1:1 2:1 3:1 4:0 5:0 6:1 7:0 8:1 
-1 0:0 1:1 2:1 3:1 4:0 5:0 6:0 7:1 8:1 
-1 0:0 1:1 2:0 3:1 4:1 5:0 6:1 7:0 8:1 
-1 0:0 1:1 2:0 3:1 4:0 5:1 6:1 7:0 8:1 
-1 0:0 1:1 2:0 3:0 4:1 5:1 6:1 7:0 8:1 
-1 0:0 1:0 2:1 3:1 4:1 5:0 6:0 7:1 8:1 
